<?xml version="1.0"?>
<opencv_storage>
<cascade>
  <stageType>BOOST</stageType>
  <featureType>LBP</featureType>
  <height>40</height>
  <width>40</width>
  <stageParams>
    <boostType>GAB</boostType>
    <minHitRate>9.9500000476837158e-01</minHitRate>
    <maxFalseAlarm>5.0000000000000000e-01</maxFalseAlarm>
    <weightTrimRate>9.4999999999999996e-01</weightTrimRate>
    <maxDepth>1</maxDepth>
    <maxWeakCount>100</maxWeakCount></stageParams>
  <featureParams>
    <maxCatCount>256</maxCatCount>
    <featSize>1</featSize></featureParams>
  <stageNum>15</stageNum>
  <stages>
    <!-- stage 0 -->
    <_>
      <maxWeakCount>5</maxWeakCount>
      <stageThreshold>-2.0285534858703613e+00</stageThreshold>
      <weakClassifiers>
        <_>
          <internalNodes>
            0 -1 7 -526849 -4494061 285245568 -671886055 -168557837
            2139177219 1369657537 862196081</internalNodes>
          <leafValues>
            -7.7989983558654785e-01 5.1341891288757324e-01</leafValues></_>
        <_>
          <internalNodes>
            0 -1 19 -790637622 -95715322 -805158912 -717172734
            -801910309 -69132223 -253765419 -48368626</internalNodes>
          <leafValues>
            -6.5637856721878052e-01 5.1256281137466431e-01</leafValues></_>
        <_>
          <internalNodes>
            0 -1 16 71571873 -1078001549 -917307917 -67153605 8397829
            -299732989 -129948265 1060596593</internalNodes>
          <leafValues>
            -5.9805178642272949e-01 5.1593118906021118e-01</leafValues></_>
        <_>
          <internalNodes>
            0 -1 68 227803484 404183133 1402569169 1003950291
            -1491587089 277513146 295252477 95029304</internalNodes>
          <leafValues>
            -6.7005354166030884e-01 4.2826467752456665e-01</leafValues></_>
        <_>
          <internalNodes>
            0 -1 54 -170658106 -250703202 -775896500 -784011136
            -1062608753 -878565367 -1707016132 -468190925</internalNodes>
          <leafValues>
            -4.9311122298240662e-01 5.2823185920715332e-01</leafValues></_></weakClassifiers></_>
    <!-- stage 1 -->
    <_>
      <maxWeakCount>7</maxWeakCount>
      <stageThreshold>-1.8300249576568604e+00</stageThreshold>
      <weakClassifiers>
        <_>
          <internalNodes>
            0 -1 101 -1 -1485840213 -740833625 -1985522949 -1195510853
            13626317 -21498643 -908066817</internalNodes>
          <leafValues>
            -6.7455708980560303e-01 3.0974727869033813e-01</leafValues></_>
        <_>
          <internalNodes>
            0 -1 10 -1384465 -83751798 1366483919 1968390298 -398194354
            1662158852 -246257581 1999863647</internalNodes>
          <leafValues>
            -5.5005872249603271e-01 3.2790720462799072e-01</leafValues></_>
        <_>
          <internalNodes>
            0 -1 67 2147417021 490402879 -572677241 671062304
            -1076252161 -2133881601 -586336051 144646576</internalNodes>
          <leafValues>
            -4.9529850482940674e-01 4.0275835990905762e-01</leafValues></_>
        <_>
          <internalNodes>
            0 -1 20 -142102 -637797177 1896672544 -68342729 -134220615
            -85269230 -188921606 -179848442</internalNodes>
          <leafValues>
            -4.6613171696662903e-01 4.0283438563346863e-01</leafValues></_>
        <_>
          <internalNodes>
            0 -1 42 1895780407 -75546753 2137418749 -75858306 620036171
            -8421518 -789092673 -25215176</internalNodes>
          <leafValues>
            -4.0141838788986206e-01 4.6192571520805359e-01</leafValues></_>
        <_>
          <internalNodes>
            0 -1 66 -270539344 -826324378 -510807107 -411188272
            1440216240 79184600 1627423117 9436159</internalNodes>
          <leafValues>
            -5.4562819004058838e-01 3.1660595536231995e-01</leafValues></_>
        <_>
          <internalNodes>
            0 -1 23 -279455649 1112457740 2017895678 1666859098
            -1746683625 1128808540 -801889179 -143567921</internalNodes>
          <leafValues>
            -4.3824243545532227e-01 4.2025473713874817e-01</leafValues></_></weakClassifiers></_>
    <!-- stage 2 -->
    <_>
      <maxWeakCount>7</maxWeakCount>
      <stageThreshold>-2.0236980915069580e+00</stageThreshold>
      <weakClassifiers>
        <_>
          <internalNodes>
            0 -1 3 -538970657 -668337 -1291672824 -10894337 -7144005
            -6911836 -1736256547 -201590305</internalNodes>
          <leafValues>
            -6.6736090183258057e-01 2.7826085686683655e-01</leafValues></_>
        <_>
          <internalNodes>
            0 -1 15 2137396956 1568649563 2043407165 2134573656
            1049559991 1545029903 581776375 2064847651</internalNodes>
          <leafValues>
            -6.0909986495971680e-01 2.8491792082786560e-01</leafValues></_>
        <_>
          <internalNodes>
            0 -1 80 -262220 -1965038399 -572669531 -1378906701
            -592320597 1145695156 362143928 1307311095</internalNodes>
          <leafValues>
            -4.5997050404548645e-01 4.1578072309494019e-01</leafValues></_>
        <_>
          <internalNodes>
            0 -1 25 -396432050 -974756946 -1834730070 -746893490
            1411666290 1096908852 -800978863 1903382343</internalNodes>
          <leafValues>
            -5.9991544485092163e-01 3.1460127234458923e-01</leafValues></_>
        <_>
          <internalNodes>
            0 -1 5 -933040593 -2145211325 -271855389 1686671362
            1390541819 257161363 1191535943 1153954803</internalNodes>
          <leafValues>
            -5.3922790288925171e-01 3.4933072328567505e-01</leafValues></_>
        <_>
          <internalNodes>
            0 -1 50 -69394467 -1618513 -552437823 2147366975 -349696026
            2135450794 -83694101 456795090</internalNodes>
          <leafValues>
            -4.7227922081947327e-01 4.0625536441802979e-01</leafValues></_>
        <_>
          <internalNodes>
            0 -1 99 -1052359147 11512311 -787982558 -964462386 823202490
            1075732697 887083678 1358954491</internalNodes>
          <leafValues>
            -4.9721726775169373e-01 3.7009808421134949e-01</leafValues></_></weakClassifiers></_>
    <!-- stage 3 -->
    <_>
      <maxWeakCount>7</maxWeakCount>
      <stageThreshold>-1.3154543638229370e+00</stageThreshold>
      <weakClassifiers>
        <_>
          <internalNodes>
            0 -1 98 -77859855 -1482439315 -1308453900 -862067962
            -107020359 1267568893 365150361 -1042415657</internalNodes>
          <leafValues>
            -7.3256856203079224e-01 -5.9453030116856098e-03</leafValues></_>
        <_>
          <internalNodes>
            0 -1 60 810030933 2103126321 -640729665 2079725946 860058620
            -12489359 2011166716 997135800</internalNodes>
          <leafValues>
            -6.2297940254211426e-01 2.2986276447772980e-01</leafValues></_>
        <_>
          <internalNodes>
            0 -1 78 1526679367 1602180943 831511979 1964857182
            -589078388 1898119793 22010501 1886551456</internalNodes>
          <leafValues>
            -4.9552401900291443e-01 3.3030214905738831e-01</leafValues></_>
        <_>
          <internalNodes>
            0 -1 39 -1287426 -29687745 400555863 1180323170 1530027387
            1397952849 -1045017637 993163223</internalNodes>
          <leafValues>
            -5.6971353292465210e-01 2.9878479242324829e-01</leafValues></_>
        <_>
          <internalNodes>
            0 -1 6 -23470344 -11342015 1465663638 -482145512 -1117928922
            -608258019 1481867979 1373357523</internalNodes>
          <leafValues>
            -4.6479615569114685e-01 3.7054577469825745e-01</leafValues></_>
        <_>
          <internalNodes>
            0 -1 86 -1145248555 -1991465586 -1220864157 789549971
            61536429 -1991735125 -1308636791 481018354</internalNodes>
          <leafValues>
            -4.3595787882804871e-01 3.7147247791290283e-01</leafValues></_>
        <_>
          <internalNodes>
            0 -1 36 -101324632 -345510418 -1560380638 -231772182
            -2056319998 645889909 -973889146 -205523009</internalNodes>
          <leafValues>
            -3.5379463434219360e-01 4.7183987498283386e-01</leafValues></_></weakClassifiers></_>
    <!-- stage 4 -->
    <_>
      <maxWeakCount>7</maxWeakCount>
      <stageThreshold>-1.1244646310806274e+00</stageThreshold>
      <weakClassifiers>
        <_>
          <internalNodes>
            0 -1 2 -168428894 -573607870 -989608890 1732313474
            -1866485063 -37119747 -90481703 -545399025</internalNodes>
          <leafValues>
            -7.6539480686187744e-01 -1.7806267365813255e-02</leafValues></_>
        <_>
          <internalNodes>
            0 -1 9 -167775125 -441728977 -1878384604 1835097608
            -207399067 1130205298 -385866428 1884410492</internalNodes>
          <leafValues>
            -5.7526373863220215e-01 2.8735744953155518e-01</leafValues></_>
        <_>
          <internalNodes>
            0 -1 37 1141651113 -1082320673 289723263 387609251 846886167
            -15138223 -3453985 2138534754</internalNodes>
          <leafValues>
            -5.0702840089797974e-01 3.6620894074440002e-01</leafValues></_>
        <_>
          <internalNodes>
            0 -1 21 -1016206418 941670626 721285879 -701678416
            -881459393 -882409738 120579198 -985541513</internalNodes>
          <leafValues>
            -3.8771760463714600e-01 4.5614668726921082e-01</leafValues></_>
        <_>
          <internalNodes>
            0 -1 74 -104867667 -108401931 -176160 617589347 -1797331541
            72161534 398380524 295694135</internalNodes>
          <leafValues>
            -4.0268802642822266e-01 4.3721282482147217e-01</leafValues></_>
        <_>
          <internalNodes>
            0 -1 43 -940579742 -65681072 273811760 2105606611 2005476909
            -11533725 728916190 -599664367</internalNodes>
          <leafValues>
            -4.6116012334823608e-01 3.8382589817047119e-01</leafValues></_>
        <_>
          <internalNodes>
            0 -1 56 722266576 1574224072 1610639519 -641134473
            1690959295 -74739025 76027445 653987565</internalNodes>
          <leafValues>
            -4.5656558871269226e-01 4.0762209892272949e-01</leafValues></_></weakClassifiers></_>
    <!-- stage 5 -->
    <_>
      <maxWeakCount>8</maxWeakCount>
      <stageThreshold>-1.4699048995971680e+00</stageThreshold>
      <weakClassifiers>
        <_>
          <internalNodes>
            0 -1 1 -448290049 1293778993 -1006614459 -609009235
            -1216096033 -736673627 -427569953 -445163297</internalNodes>
          <leafValues>
            -6.6167449951171875e-01 4.9220898747444153e-01</leafValues></_>
        <_>
          <internalNodes>
            0 -1 29 647254664 -774565812 277400019 1401029378 406929663
            1797089881 -880706881 1332937337</internalNodes>
          <leafValues>
            -6.1729592084884644e-01 3.4682992100715637e-01</leafValues></_>
        <_>
          <internalNodes>
            0 -1 17 143633358 1107331203 -1790751897 -1696288609
            297806253 -1953886322 1904241071 7154788</internalNodes>
          <leafValues>
            -5.8178508281707764e-01 3.5521218180656433e-01</leafValues></_>
        <_>
          <internalNodes>
            0 -1 55 -757841564 1816424752 1151354332 1162019073
            -1067924792 -863452983 487763352 135404177</internalNodes>
          <leafValues>
            -6.3239580392837524e-01 3.2152542471885681e-01</leafValues></_>
        <_>
          <internalNodes>
            0 -1 76 -917637852 -360492992 -2147450623 1359052963
            -1979660287 11010051 1635812130 1145807202</internalNodes>
          <leafValues>
            -5.4741424322128296e-01 4.0421777963638306e-01</leafValues></_>
        <_>
          <internalNodes>
            0 -1 65 -274873596 -1616964240 1176094159 -343310136
            1929626073 -1742503926 606208525 563851695</internalNodes>
          <leafValues>
            -4.8723456263542175e-01 4.3206322193145752e-01</leafValues></_>
        <_>
          <internalNodes>
            0 -1 35 1986907599 -792203554 -85061959 -649253349
            -285731108 1886408180 -2009761861 2120435231</internalNodes>
          <leafValues>
            -3.7652876973152161e-01 5.5684149265289307e-01</leafValues></_>
        <_>
          <internalNodes>
            0 -1 40 -18428414 -924430428 -356864480 -218452118
            -134750138 82964325 1996354946 -202640642</internalNodes>
          <leafValues>
            -3.7579229474067688e-01 5.5062556266784668e-01</leafValues></_></weakClassifiers></_>
    <!-- stage 6 -->
    <_>
      <maxWeakCount>10</maxWeakCount>
      <stageThreshold>-1.7167373895645142e+00</stageThreshold>
      <weakClassifiers>
        <_>
          <internalNodes>
            0 -1 110 -70389560 -294705982 872530058 -87322430 -770989666
            1644167168 -771051286 -204504625</internalNodes>
          <leafValues>
            -6.6842186450958252e-01 4.7411445528268814e-02</leafValues></_>
        <_>
          <internalNodes>
            0 -1 75 784006073 -1358809843 -1290547759 2111770865
            -1348730949 -2119304980 641323163 261046620</internalNodes>
          <leafValues>
            -5.1484102010726929e-01 2.6266747713088989e-01</leafValues></_>
        <_>
          <internalNodes>
            0 -1 69 1465243217 796379463 -708512429 2069323001
            -882161087 -1669395633 -400578048 -265625837</internalNodes>
          <leafValues>
            -4.8714804649353027e-01 3.1641215085983276e-01</leafValues></_>
        <_>
          <internalNodes>
            0 -1 94 -1076252360 -1389589527 -1878548012 -1382969380
            -820879905 237851620 355186083 1169162196</internalNodes>
          <leafValues>
            -4.6160283684730530e-01 3.0856165289878845e-01</leafValues></_>
        <_>
          <internalNodes>
            0 -1 14 -841087858 -376959921 -180222817 2103870186
            1908035087 1644455988 -184499599 2017885991</internalNodes>
          <leafValues>
            -5.7266891002655029e-01 2.8122255206108093e-01</leafValues></_>
        <_>
          <internalNodes>
            0 -1 33 -536356425 -494204704 1359533714 612790888
            -263757121 1121265689 1073968880 -997853612</internalNodes>
          <leafValues>
            -4.0647992491722107e-01 3.6517584323883057e-01</leafValues></_>
        <_>
          <internalNodes>
            0 -1 88 547664424 2004860722 -16826504 -739520518
            -1342443702 -781353139 -1879580741 -1140908584</internalNodes>
          <leafValues>
            -3.7089991569519043e-01 3.8340166211128235e-01</leafValues></_>
        <_>
          <internalNodes>
            0 -1 107 -89160060 -504365370 -491045328 -359678286
            -679482172 74935638 -1258310526 -67115029</internalNodes>
          <leafValues>
            -3.0875816941261292e-01 4.6125677227973938e-01</leafValues></_>
        <_>
          <internalNodes>
            0 -1 58 1258842480 526351198 -641115885 1058052688 -36996676
            -396953221 -725259852 773403352</internalNodes>
          <leafValues>
            -5.6253534555435181e-01 2.6973080635070801e-01</leafValues></_>
        <_>
          <internalNodes>
            0 -1 44 1325326974 -18972466 -1681226990 1269171866
            -870850420 276286112 -752879323 1074154831</internalNodes>
          <leafValues>
            -5.7222855091094971e-01 2.4649073183536530e-01</leafValues></_></weakClassifiers></_>
    <!-- stage 7 -->
    <_>
      <maxWeakCount>9</maxWeakCount>
      <stageThreshold>-1.3010586500167847e+00</stageThreshold>
      <weakClassifiers>
        <_>
          <internalNodes>
            0 -1 108 -2498613 785361126 1476415273 1133997451 -150471941
            -847244546 -1323368961 -572527873</internalNodes>
          <leafValues>
            -6.5865314006805420e-01 2.1992883086204529e-01</leafValues></_>
        <_>
          <internalNodes>
            0 -1 77 -1363090583 -1749292535 -980380139 -1390004491
            -893672541 176873643 161027240 150934936</internalNodes>
          <leafValues>
            -5.9976679086685181e-01 2.3034378886222839e-01</leafValues></_>
        <_>
          <internalNodes>
            0 -1 47 -1074446333 -580972187 -27602041 -92531119 152181771
            -95530675 -190822099 -94424438</internalNodes>
          <leafValues>
            -4.6093195676803589e-01 3.4708562493324280e-01</leafValues></_>
        <_>
          <internalNodes>
            0 -1 83 1005041409 -1364596802 -1476446285 1434302361
            -2122344809 625653541 -1217419329 303017471</internalNodes>
          <leafValues>
            -3.8005751371383667e-01 4.2613646388053894e-01</leafValues></_>
        <_>
          <internalNodes>
            0 -1 13 -940631825 -1891123232 778467041 1728905146
            -1376381618 1164935129 1333220945 1400896129</internalNodes>
          <leafValues>
            -4.0140432119369507e-01 4.1424515843391418e-01</leafValues></_>
        <_>
          <internalNodes>
            0 -1 81 743439207 -79210725 -2105320308 2031128863
            -1868400380 1359173709 -1828463808 1885500912</internalNodes>
          <leafValues>
            -5.6539034843444824e-01 2.8252226114273071e-01</leafValues></_>
        <_>
          <internalNodes>
            0 -1 22 -1504777270 -1566420386 2110968612 -867114942
            943726703 -1724409004 -794748483 1358119890</internalNodes>
          <leafValues>
            -6.1825239658355713e-01 2.5179630517959595e-01</leafValues></_>
        <_>
          <internalNodes>
            0 -1 109 -1030037376 -846249845 1394250432 1252442314
            -1048415611 17432616 -612173374 -256132645</internalNodes>
          <leafValues>
            -4.2837926745414734e-01 3.8857302069664001e-01</leafValues></_>
        <_>
          <internalNodes>
            0 -1 49 2138353328 -134873121 1359430367 1313505455
            -1429304325 2121949529 -41256211 992155701</internalNodes>
          <leafValues>
            -4.8874351382255554e-01 3.5799938440322876e-01</leafValues></_></weakClassifiers></_>
    <!-- stage 8 -->
    <_>
      <maxWeakCount>7</maxWeakCount>
      <stageThreshold>-1.8930389881134033e+00</stageThreshold>
      <weakClassifiers>
        <_>
          <internalNodes>
            0 -1 11 -689969155 -982027903 426562 1399817134 -1415363771
            -866582200 -149753075 -5506305</internalNodes>
          <leafValues>
            -6.8511837720870972e-01 1.5478260815143585e-01</leafValues></_>
        <_>
          <internalNodes>
            0 -1 102 865043949 214904108 1933789517 1901972750 593725694
            -1921015604 -211887119 -2051567169</internalNodes>
          <leafValues>
            -4.6607846021652222e-01 3.7029868364334106e-01</leafValues></_>
        <_>
          <internalNodes>
            0 -1 48 -991690496 -343363487 -666499552 207504408 -69497867
            -1616035705 -922785073 -364311216</internalNodes>
          <leafValues>
            -5.8194941282272339e-01 2.8626754879951477e-01</leafValues></_>
        <_>
          <internalNodes>
            0 -1 82 -1674915424 -1348253571 -1421790967 -1996073210
            1079629240 1233850385 351359470 149419011</internalNodes>
          <leafValues>
            -5.5921959877014160e-01 2.8946155309677124e-01</leafValues></_>
        <_>
          <internalNodes>
            0 -1 51 134793045 1566494939 1313465724 489822418 411237428
            -76410768 1628013821 1797985266</internalNodes>
          <leafValues>
            -4.4177097082138062e-01 4.0321555733680725e-01</leafValues></_>
        <_>
          <internalNodes>
            0 -1 63 1742890769 586219440 -944777335 -186188324
            -134466176 1001913599 1978809816 -1073758757</internalNodes>
          <leafValues>
            -3.9019852876663208e-01 4.3104258179664612e-01</leafValues></_>
        <_>
          <internalNodes>
            0 -1 46 -397326593 -275857202 805374604 1945116876
            -1019180331 17961029 1753774261 1985887031</internalNodes>
          <leafValues>
            -4.7682154178619385e-01 3.4035882353782654e-01</leafValues></_></weakClassifiers></_>
    <!-- stage 9 -->
    <_>
      <maxWeakCount>8</maxWeakCount>
      <stageThreshold>-1.6859676837921143e+00</stageThreshold>
      <weakClassifiers>
        <_>
          <internalNodes>
            0 -1 96 -813040207 -408716857 17175620 1485168759
            -2142965061 -954527725 1466794186 -646463493</internalNodes>
          <leafValues>
            -6.9062000513076782e-01 1.3355408608913422e-01</leafValues></_>
        <_>
          <internalNodes>
            0 -1 105 -1718964549 -2096981885 302166619 -1568352190
            -1861946883 8487049 -473828384 348451829</internalNodes>
          <leafValues>
            -6.1551433801651001e-01 2.1550223231315613e-01</leafValues></_>
        <_>
          <internalNodes>
            0 -1 31 -1216741372 -2666407 835390478 2014855410
            -1149034427 806361525 1826283854 -512491921</internalNodes>
          <leafValues>
            -5.3813380002975464e-01 3.2099172472953796e-01</leafValues></_>
        <_>
          <internalNodes>
            0 -1 61 -1411676160 1800340999 -757591683 1228199687
            1803849917 -62152673 1800339600 707467928</internalNodes>
          <leafValues>
            -5.4131031036376953e-01 2.9717290401458740e-01</leafValues></_>
        <_>
          <internalNodes>
            0 -1 92 1492704917 636399551 -201409667 -173179976
            -1778925315 -2015559683 939514568 -2116035589</internalNodes>
          <leafValues>
            -3.6522760987281799e-01 4.5826175808906555e-01</leafValues></_>
        <_>
          <internalNodes>
            0 -1 30 -826040182 40796242 536905728 -225312739 -1743578544
            1093902340 -1866457024 -136861245</internalNodes>
          <leafValues>
            -4.6884468197822571e-01 3.9226308465003967e-01</leafValues></_>
        <_>
          <internalNodes>
            0 -1 73 -50347240 -919662281 228344395 -75562413 -1499921923
            1856897433 629345676 -196740286</internalNodes>
          <leafValues>
            -4.2793014645576477e-01 4.2405432462692261e-01</leafValues></_>
        <_>
          <internalNodes>
            0 -1 52 -890108870 118883258 -451927808 -1621194750
            -103834629 -42851924 -179450891 1169495268</internalNodes>
          <leafValues>
            -5.8963662385940552e-01 2.8693085908889771e-01</leafValues></_></weakClassifiers></_>
    <!-- stage 10 -->
    <_>
      <maxWeakCount>10</maxWeakCount>
      <stageThreshold>-1.7233166694641113e+00</stageThreshold>
      <weakClassifiers>
        <_>
          <internalNodes>
            0 -1 90 -70190966 -607673592 -805187424 -211615120
            -336932792 -2013231326 -435650318 -202669637</internalNodes>
          <leafValues>
            -6.5777915716171265e-01 5.3302433341741562e-02</leafValues></_>
        <_>
          <internalNodes>
            0 -1 106 1541327394 -898399334 34832706 1074307899
            -1949632304 1117426314 -267996763 1079377391</internalNodes>
          <leafValues>
            -5.5762469768524170e-01 2.0761433243751526e-01</leafValues></_>
        <_>
          <internalNodes>
            0 -1 72 820750080 66823999 1371575421 -1748525323 1335561215
            -1364803422 -2119065091 425458392</internalNodes>
          <leafValues>
            -4.8295256495475769e-01 2.8077650070190430e-01</leafValues></_>
        <_>
          <internalNodes>
            0 -1 8 -858846226 -1811963687 -884332434 -2132344092
            -42063452 -1221480971 -1887711747 1349979255</internalNodes>
          <leafValues>
            -5.0529652833938599e-01 2.6107752323150635e-01</leafValues></_>
        <_>
          <internalNodes>
            0 -1 57 1252009672 1381908574 -662224673 1210976702
            1298947068 2143158859 2062435323 520765425</internalNodes>
          <leafValues>
            -4.8688682913780212e-01 2.7947586774826050e-01</leafValues></_>
        <_>
          <internalNodes>
            0 -1 100 -541081069 -2018799833 -1334004960 -1974731017
            1643841480 1190602516 -739126533 -184680483</internalNodes>
          <leafValues>
            -3.5879236459732056e-01 3.8388431072235107e-01</leafValues></_>
        <_>
          <internalNodes>
            0 -1 53 -271103992 2006406079 1430739728 -1123881121
            -1548766813 -1246100025 -389730044 -628627902</internalNodes>
          <leafValues>
            -4.9014037847518921e-01 2.7106267213821411e-01</leafValues></_>
        <_>
          <internalNodes>
            0 -1 64 -537104112 -1798925919 802996569 -557020480
            1528328464 -1578933989 536458924 49257167</internalNodes>
          <leafValues>
            -4.7461488842964172e-01 2.7589109539985657e-01</leafValues></_>
        <_>
          <internalNodes>
            0 -1 104 -400444286 -1065783318 -1464456608 -186187846
            -889590718 1297020749 -23603248 -1051397</internalNodes>
          <leafValues>
            -3.2964769005775452e-01 4.2412129044532776e-01</leafValues></_>
        <_>
          <internalNodes>
            0 -1 24 -10491669 -511557540 -2147352321 1930697934
            -2113316588 1630869576 -646896876 1966857723</internalNodes>
          <leafValues>
            -4.1242933273315430e-01 3.4241446852684021e-01</leafValues></_></weakClassifiers></_>
    <!-- stage 11 -->
    <_>
      <maxWeakCount>8</maxWeakCount>
      <stageThreshold>-1.8192609548568726e+00</stageThreshold>
      <weakClassifiers>
        <_>
          <internalNodes>
            0 -1 62 -100672291 -9580266 -782271475 -41543484 -644939383
            -10901495 418982173 -49958978</internalNodes>
          <leafValues>
            -6.8734014034271240e-01 1.0725893825292587e-01</leafValues></_>
        <_>
          <internalNodes>
            0 -1 34 -651167073 1206878927 1149289036 -114116690
            -339181545 799015127 -1289563305 1935760945</internalNodes>
          <leafValues>
            -4.9862319231033325e-01 3.2962438464164734e-01</leafValues></_>
        <_>
          <internalNodes>
            0 -1 79 -607018832 1308282872 872489241 -1310799260
            -910241351 1285374664 349020313 502003884</internalNodes>
          <leafValues>
            -5.1522004604339600e-01 3.1514424085617065e-01</leafValues></_>
        <_>
          <internalNodes>
            0 -1 41 -932425062 -269541085 73142287 1982897953 -204914353
            1627816448 496991343 926362967</internalNodes>
          <leafValues>
            -5.2074605226516724e-01 3.1092208623886108e-01</leafValues></_>
        <_>
          <internalNodes>
            0 -1 85 1004004965 -1899757564 -251148643 -858675033
            -2002024979 -2054717142 352944555 29334588</internalNodes>
          <leafValues>
            -4.6861022710800171e-01 3.4831863641738892e-01</leafValues></_>
        <_>
          <internalNodes>
            0 -1 97 -1938444240 -1480159209 68326402 -1550474286
            2008197307 -2089729198 -1321488216 7016367</internalNodes>
          <leafValues>
            -4.7916132211685181e-01 3.2463672757148743e-01</leafValues></_>
        <_>
          <internalNodes>
            0 -1 12 -1370726194 -115683106 -1941919572 1390086730
            -107722532 1886945389 1259232679 1927153165</internalNodes>
          <leafValues>
            -5.5091989040374756e-01 2.5894358754158020e-01</leafValues></_>
        <_>
          <internalNodes>
            0 -1 59 911478812 -547486712 402873823 -78499776 1942664112
            -300193429 -150375268 2134446192</internalNodes>
          <leafValues>
            -5.7760137319564819e-01 2.7071025967597961e-01</leafValues></_></weakClassifiers></_>
    <!-- stage 12 -->
    <_>
      <maxWeakCount>7</maxWeakCount>
      <stageThreshold>-1.4245731830596924e+00</stageThreshold>
      <weakClassifiers>
        <_>
          <internalNodes>
            0 -1 45 -783380993 -639774605 2030506397 1440713570
            767695023 -591689669 -1054336577 466027007</internalNodes>
          <leafValues>
            -6.8474984169006348e-01 3.0150067806243896e-01</leafValues></_>
        <_>
          <internalNodes>
            0 -1 71 573048880 440408969 -2147250159 2030556114 689506235
            -1900293939 71165345 295788704</internalNodes>
          <leafValues>
            -7.7222871780395508e-01 1.8132425844669342e-01</leafValues></_>
        <_>
          <internalNodes>
            0 -1 27 -774504396 1932404140 -728649182 1987117075
            -1211543217 254086721 -513655293 544672895</internalNodes>
          <leafValues>
            -6.0408818721771240e-01 3.0380409955978394e-01</leafValues></_>
        <_>
          <internalNodes>
            0 -1 91 -1184654188 -1385589460 61617680 396212509
            1392164766 1087309670 -2038438727 48084955</internalNodes>
          <leafValues>
            -4.1516411304473877e-01 4.4694533944129944e-01</leafValues></_>
        <_>
          <internalNodes>
            0 -1 103 -1483090540 251846658 -1001963121 -1666564063
            77410793 9046152 1074786511 82803688</internalNodes>
          <leafValues>
            -5.1488184928894043e-01 3.4996563196182251e-01</leafValues></_>
        <_>
          <internalNodes>
            0 -1 4 -815607733 -2101124830 1124794447 -842300735
            -1325143089 1259842209 17498146 1096227537</internalNodes>
          <leafValues>
            -4.6941998600959778e-01 3.6835625767707825e-01</leafValues></_>
        <_>
          <internalNodes>
            0 -1 26 446565560 -661895099 -133102465 1417285962
            -232764986 1946099797 -158929571 1932738839</internalNodes>
          <leafValues>
            -5.7771682739257813e-01 2.9029095172882080e-01</leafValues></_></weakClassifiers></_>
    <!-- stage 13 -->
    <_>
      <maxWeakCount>5</maxWeakCount>
      <stageThreshold>-1.3157895803451538e+00</stageThreshold>
      <weakClassifiers>
        <_>
          <internalNodes>
            0 -1 18 -569127245 -581860856 -1073538765 151060898 27410562
            746586241 9357469 1181095</internalNodes>
          <leafValues>
            -7.6464509963989258e-01 1.4621409773826599e-01</leafValues></_>
        <_>
          <internalNodes>
            0 -1 28 1410076714 2040218697 -263197213 457858083
            -125079503 -535076850 -1992003915 1279197841</internalNodes>
          <leafValues>
            -6.5362060070037842e-01 2.8487277030944824e-01</leafValues></_>
        <_>
          <internalNodes>
            0 -1 93 -1264426847 -1951784795 1640055376 -1985642622
            537702645 -2013093752 1428406777 10048720</internalNodes>
          <leafValues>
            -6.4913505315780640e-01 3.0066666007041931e-01</leafValues></_>
        <_>
          <internalNodes>
            0 -1 70 336739728 -1542930088 318833109 -304504611
            -1597000792 680565557 393189532 699344135</internalNodes>
          <leafValues>
            -5.1789194345474243e-01 3.6494958400726318e-01</leafValues></_>
        <_>
          <internalNodes>
            0 -1 87 -531629790 1035180437 134287442 1435180426
            -1937203160 268642344 1960085168 355183322</internalNodes>
          <leafValues>
            -4.8044869303703308e-01 3.8666161894798279e-01</leafValues></_></weakClassifiers></_>
    <!-- stage 14 -->
    <_>
      <maxWeakCount>6</maxWeakCount>
      <stageThreshold>-1.6004216670989990e+00</stageThreshold>
      <weakClassifiers>
        <_>
          <internalNodes>
            0 -1 38 1073766568 -417660857 536952847 1463748047
            1346511740 1595345056 -1979702583 874198943</internalNodes>
          <leafValues>
            -8.2325053215026855e-01 8.4482148289680481e-02</leafValues></_>
        <_>
          <internalNodes>
            0 -1 89 265732532 1301008787 -2130112256 1426427971
            579076094 170127617 1355372746 1078973443</internalNodes>
          <leafValues>
            -5.9266453981399536e-01 3.7629768252372742e-01</leafValues></_>
        <_>
          <internalNodes>
            0 -1 32 1346564102 -1055604736 1360058442 -678166400
            1174946848 1631602688 1426145613 -277913341</internalNodes>
          <leafValues>
            -6.2560379505157471e-01 3.4074884653091431e-01</leafValues></_>
        <_>
          <internalNodes>
            0 -1 84 -1276528112 -2147200936 17203473 -1923153532
            -510933506 134971656 856659614 277817675</internalNodes>
          <leafValues>
            -4.9702724814414978e-01 3.8863646984100342e-01</leafValues></_>
        <_>
          <internalNodes>
            0 -1 95 -797702130 1252945636 1996252704 1947566071
            -996359168 604470982 -1501648989 -1275087441</internalNodes>
          <leafValues>
            -3.4071534872055054e-01 5.5538153648376465e-01</leafValues></_>
        <_>
          <internalNodes>
            0 -1 0 -1056181303 -1458580594 1526734549 713579008
            -771490845 -260040248 436417616 483410004</internalNodes>
          <leafValues>
            -5.0823098421096802e-01 3.8274297118186951e-01</leafValues></_></weakClassifiers></_></stages>
  <features>
    <_>
      <rect>
        0 0 5 2</rect></_>
    <_>
      <rect>
        0 3 7 9</rect></_>
    <_>
      <rect>
        0 3 12 4</rect></_>
    <_>
      <rect>
        0 3 13 11</rect></_>
    <_>
      <rect>
        0 4 5 5</rect></_>
    <_>
      <rect>
        0 4 6 4</rect></_>
    <_>
      <rect>
        0 5 13 5</rect></_>
    <_>
      <rect>
        0 8 12 10</rect></_>
    <_>
      <rect>
        0 9 9 7</rect></_>
    <_>
      <rect>
        0 11 4 4</rect></_>
    <_>
      <rect>
        0 12 5 9</rect></_>
    <_>
      <rect>
        0 14 3 4</rect></_>
    <_>
      <rect>
        0 16 9 4</rect></_>
    <_>
      <rect>
        0 17 2 4</rect></_>
    <_>
      <rect>
        0 17 5 6</rect></_>
    <_>
      <rect>
        0 22 10 6</rect></_>
    <_>
      <rect>
        0 28 7 4</rect></_>
    <_>
      <rect>
        1 0 7 4</rect></_>
    <_>
      <rect>
        1 0 9 12</rect></_>
    <_>
      <rect>
        1 0 12 6</rect></_>
    <_>
      <rect>
        1 0 13 7</rect></_>
    <_>
      <rect>
        1 3 5 6</rect></_>
    <_>
      <rect>
        1 6 8 4</rect></_>
    <_>
      <rect>
        1 12 4 5</rect></_>
    <_>
      <rect>
        1 13 4 5</rect></_>
    <_>
      <rect>
        1 16 4 4</rect></_>
    <_>
      <rect>
        1 21 6 5</rect></_>
    <_>
      <rect>
        1 22 3 5</rect></_>
    <_>
      <rect>
        1 22 7 6</rect></_>
    <_>
      <rect>
        1 25 8 5</rect></_>
    <_>
      <rect>
        1 26 1 1</rect></_>
    <_>
      <rect>
        1 31 3 2</rect></_>
    <_>
      <rect>
        1 34 7 2</rect></_>
    <_>
      <rect>
        2 0 3 5</rect></_>
    <_>
      <rect>
        2 9 4 5</rect></_>
    <_>
      <rect>
        2 14 6 5</rect></_>
    <_>
      <rect>
        2 25 1 1</rect></_>
    <_>
      <rect>
        2 28 7 4</rect></_>
    <_>
      <rect>
        3 17 5 6</rect></_>
    <_>
      <rect>
        3 17 5 7</rect></_>
    <_>
      <rect>
        3 26 1 1</rect></_>
    <_>
      <rect>
        3 26 3 3</rect></_>
    <_>
      <rect>
        3 31 5 3</rect></_>
    <_>
      <rect>
        4 0 12 5</rect></_>
    <_>
      <rect>
        4 9 8 6</rect></_>
    <_>
      <rect>
        4 12 6 4</rect></_>
    <_>
      <rect>
        4 14 4 3</rect></_>
    <_>
      <rect>
        5 31 4 3</rect></_>
    <_>
      <rect>
        6 0 8 5</rect></_>
    <_>
      <rect>
        6 17 5 6</rect></_>
    <_>
      <rect>
        7 20 4 6</rect></_>
    <_>
      <rect>
        7 28 8 4</rect></_>
    <_>
      <rect>
        8 0 5 4</rect></_>
    <_>
      <rect>
        8 0 9 6</rect></_>
    <_>
      <rect>
        8 5 8 5</rect></_>
    <_>
      <rect>
        9 18 5 6</rect></_>
    <_>
      <rect>
        10 7 7 6</rect></_>
    <_>
      <rect>
        10 17 3 3</rect></_>
    <_>
      <rect>
        11 23 7 5</rect></_>
    <_>
      <rect>
        11 26 5 4</rect></_>
    <_>
      <rect>
        11 28 5 4</rect></_>
    <_>
      <rect>
        12 2 6 5</rect></_>
    <_>
      <rect>
        12 3 9 6</rect></_>
    <_>
      <rect>
        13 17 7 5</rect></_>
    <_>
      <rect>
        13 17 8 4</rect></_>
    <_>
      <rect>
        15 13 8 6</rect></_>
    <_>
      <rect>
        15 14 8 6</rect></_>
    <_>
      <rect>
        15 26 8 4</rect></_>
    <_>
      <rect>
        15 27 6 4</rect></_>
    <_>
      <rect>
        16 3 7 4</rect></_>
    <_>
      <rect>
        16 14 5 5</rect></_>
    <_>
      <rect>
        16 28 6 4</rect></_>
    <_>
      <rect>
        18 31 7 3</rect></_>
    <_>
      <rect>
        19 1 7 7</rect></_>
    <_>
      <rect>
        19 16 7 8</rect></_>
    <_>
      <rect>
        19 27 5 4</rect></_>
    <_>
      <rect>
        20 0 6 10</rect></_>
    <_>
      <rect>
        20 24 6 5</rect></_>
    <_>
      <rect>
        21 1 6 5</rect></_>
    <_>
      <rect>
        21 17 5 6</rect></_>
    <_>
      <rect>
        21 18 6 6</rect></_>
    <_>
      <rect>
        22 1 6 4</rect></_>
    <_>
      <rect>
        22 10 6 10</rect></_>
    <_>
      <rect>
        22 15 4 4</rect></_>
    <_>
      <rect>
        22 16 4 4</rect></_>
    <_>
      <rect>
        22 25 6 4</rect></_>
    <_>
      <rect>
        22 25 6 5</rect></_>
    <_>
      <rect>
        23 12 4 4</rect></_>
    <_>
      <rect>
        23 36 1 1</rect></_>
    <_>
      <rect>
        24 10 5 10</rect></_>
    <_>
      <rect>
        24 12 1 1</rect></_>
    <_>
      <rect>
        24 16 3 3</rect></_>
    <_>
      <rect>
        24 28 5 4</rect></_>
    <_>
      <rect>
        25 16 5 8</rect></_>
    <_>
      <rect>
        25 18 4 5</rect></_>
    <_>
      <rect>
        26 11 1 1</rect></_>
    <_>
      <rect>
        26 12 4 7</rect></_>
    <_>
      <rect>
        26 15 4 4</rect></_>
    <_>
      <rect>
        26 17 4 5</rect></_>
    <_>
      <rect>
        28 11 4 5</rect></_>
    <_>
      <rect>
        28 13 4 4</rect></_>
    <_>
      <rect>
        28 19 4 6</rect></_>
    <_>
      <rect>
        28 28 4 4</rect></_>
    <_>
      <rect>
        30 25 3 4</rect></_>
    <_>
      <rect>
        31 16 1 1</rect></_>
    <_>
      <rect>
        31 18 3 5</rect></_>
    <_>
      <rect>
        33 17 2 3</rect></_>
    <_>
      <rect>
        33 20 1 1</rect></_>
    <_>
      <rect>
        34 25 2 3</rect></_>
    <_>
      <rect>
        35 26 1 1</rect></_>
    <_>
      <rect>
        37 22 1 1</rect></_></features></cascade>
</opencv_storage>
