<?xml version="1.0"?>
<opencv_storage>
<cascade>
  <stageType>BOOST</stageType>
  <featureType>HAAR</featureType>
  <height>40</height>
  <width>40</width>
  <stageParams>
    <boostType>GAB</boostType>
    <minHitRate>9.9500000476837158e-01</minHitRate>
    <maxFalseAlarm>5.0000000000000000e-01</maxFalseAlarm>
    <weightTrimRate>9.4999999999999996e-01</weightTrimRate>
    <maxDepth>1</maxDepth>
    <maxWeakCount>100</maxWeakCount></stageParams>
  <featureParams>
    <maxCatCount>0</maxCatCount>
    <featSize>1</featSize>
    <mode>BASIC</mode></featureParams>
  <stageNum>19</stageNum>
  <stages>
    <!-- stage 0 -->
    <_>
      <maxWeakCount>9</maxWeakCount>
      <stageThreshold>-1.9830313920974731e+00</stageThreshold>
      <weakClassifiers>
        <_>
          <internalNodes>
            0 -1 304 -3.7256430834531784e-02</internalNodes>
          <leafValues>
            5.8999192714691162e-01 -7.0421099662780762e-01</leafValues></_>
        <_>
          <internalNodes>
            0 -1 40 -1.7754588276147842e-02</internalNodes>
          <leafValues>
            5.8797377347946167e-01 -4.4376888871192932e-01</leafValues></_>
        <_>
          <internalNodes>
            0 -1 203 2.2297702729701996e-02</internalNodes>
          <leafValues>
            -3.7537172436714172e-01 5.7814019918441772e-01</leafValues></_>
        <_>
          <internalNodes>
            0 -1 266 -1.7486469820141792e-02</internalNodes>
          <leafValues>
            6.6416966915130615e-01 -2.3415106534957886e-01</leafValues></_>
        <_>
          <internalNodes>
            0 -1 215 4.2129725217819214e-02</internalNodes>
          <leafValues>
            -1.6815784573554993e-01 7.4233096837997437e-01</leafValues></_>
        <_>
          <internalNodes>
            0 -1 239 9.9341887980699539e-03</internalNodes>
          <leafValues>
            3.2230299711227417e-01 -4.6209648251533508e-01</leafValues></_>
        <_>
          <internalNodes>
            0 -1 273 2.9240604490041733e-02</internalNodes>
          <leafValues>
            -1.5736094117164612e-01 7.5900751352310181e-01</leafValues></_>
        <_>
          <internalNodes>
            0 -1 148 -2.9854640364646912e-02</internalNodes>
          <leafValues>
            6.1930686235427856e-01 -2.0237591862678528e-01</leafValues></_>
        <_>
          <internalNodes>
            0 -1 48 -1.5089316293597221e-02</internalNodes>
          <leafValues>
            5.2912151813507080e-01 -1.4602634310722351e-01</leafValues></_></weakClassifiers></_>
    <!-- stage 1 -->
    <_>
      <maxWeakCount>22</maxWeakCount>
      <stageThreshold>-1.7935664653778076e+00</stageThreshold>
      <weakClassifiers>
        <_>
          <internalNodes>
            0 -1 71 7.5650006532669067e-02</internalNodes>
          <leafValues>
            -6.4188390970230103e-01 1.7185185849666595e-01</leafValues></_>
        <_>
          <internalNodes>
            0 -1 271 -4.1774339973926544e-02</internalNodes>
          <leafValues>
            3.6710077524185181e-01 -3.4934872388839722e-01</leafValues></_>
        <_>
          <internalNodes>
            0 -1 66 -4.0362115949392319e-02</internalNodes>
          <leafValues>
            3.8602083921432495e-01 -2.6702177524566650e-01</leafValues></_>
        <_>
          <internalNodes>
            0 -1 267 -5.0783514976501465e-02</internalNodes>
          <leafValues>
            4.9410164356231689e-01 -1.3073958456516266e-01</leafValues></_>
        <_>
          <internalNodes>
            0 -1 253 -1.9436085596680641e-02</internalNodes>
          <leafValues>
            5.3213375806808472e-01 -1.3157314062118530e-01</leafValues></_>
        <_>
          <internalNodes>
            0 -1 52 -2.0372860133647919e-02</internalNodes>
          <leafValues>
            5.2570998668670654e-01 -1.2590113282203674e-01</leafValues></_>
        <_>
          <internalNodes>
            0 -1 45 3.3589556813240051e-02</internalNodes>
          <leafValues>
            -1.5328609943389893e-01 4.6179017424583435e-01</leafValues></_>
        <_>
          <internalNodes>
            0 -1 362 1.4310823753476143e-02</internalNodes>
          <leafValues>
            -1.6977012157440186e-01 3.7662500143051147e-01</leafValues></_>
        <_>
          <internalNodes>
            0 -1 452 5.1817302592098713e-03</internalNodes>
          <leafValues>
            -1.5316019952297211e-01 4.1009086370468140e-01</leafValues></_>
        <_>
          <internalNodes>
            0 -1 170 2.4194512516260147e-03</internalNodes>
          <leafValues>
            -9.8750740289688110e-02 6.6901373863220215e-01</leafValues></_>
        <_>
          <internalNodes>
            0 -1 1 -2.6641707518137991e-04</internalNodes>
          <leafValues>
            -4.0496298670768738e-01 1.5430054068565369e-01</leafValues></_>
        <_>
          <internalNodes>
            0 -1 43 1.6984678222797811e-04</internalNodes>
          <leafValues>
            1.4592699706554413e-01 -4.2805802822113037e-01</leafValues></_>
        <_>
          <internalNodes>
            0 -1 285 -5.7641183957457542e-03</internalNodes>
          <leafValues>
            6.0566526651382446e-01 -9.9853388965129852e-02</leafValues></_>
        <_>
          <internalNodes>
            0 -1 370 -3.0570670962333679e-02</internalNodes>
          <leafValues>
            5.0682502985000610e-01 -9.9468581378459930e-02</leafValues></_>
        <_>
          <internalNodes>
            0 -1 387 8.3242170512676239e-03</internalNodes>
          <leafValues>
            -1.0135651379823685e-01 5.5227249860763550e-01</leafValues></_>
        <_>
          <internalNodes>
            0 -1 404 1.3944836333394051e-02</internalNodes>
          <leafValues>
            -1.2350217252969742e-01 4.3127468228340149e-01</leafValues></_>
        <_>
          <internalNodes>
            0 -1 356 9.4296009046956897e-04</internalNodes>
          <leafValues>
            1.1407238245010376e-01 -5.0051009654998779e-01</leafValues></_>
        <_>
          <internalNodes>
            0 -1 251 3.8543960545212030e-04</internalNodes>
          <leafValues>
            -2.3884955048561096e-01 2.4441857635974884e-01</leafValues></_>
        <_>
          <internalNodes>
            0 -1 390 -1.6490290872752666e-03</internalNodes>
          <leafValues>
            2.2683964669704437e-01 -2.4160371720790863e-01</leafValues></_>
        <_>
          <internalNodes>
            0 -1 447 -1.7646956257522106e-04</internalNodes>
          <leafValues>
            -3.1187045574188232e-01 1.6928228735923767e-01</leafValues></_>
        <_>
          <internalNodes>
            0 -1 345 3.6768494173884392e-03</internalNodes>
          <leafValues>
            -9.9267624318599701e-02 6.1339128017425537e-01</leafValues></_>
        <_>
          <internalNodes>
            0 -1 24 1.0151824681088328e-03</internalNodes>
          <leafValues>
            1.5340358018875122e-01 -3.6638563871383667e-01</leafValues></_></weakClassifiers></_>
    <!-- stage 2 -->
    <_>
      <maxWeakCount>24</maxWeakCount>
      <stageThreshold>-1.7334177494049072e+00</stageThreshold>
      <weakClassifiers>
        <_>
          <internalNodes>
            0 -1 137 4.9253989011049271e-02</internalNodes>
          <leafValues>
            -6.2543857097625732e-01 1.3946117460727692e-01</leafValues></_>
        <_>
          <internalNodes>
            0 -1 305 -1.9541673362255096e-02</internalNodes>
          <leafValues>
            3.0562829971313477e-01 -3.4007748961448669e-01</leafValues></_>
        <_>
          <internalNodes>
            0 -1 65 -8.1679392606019974e-03</internalNodes>
          <leafValues>
            3.3847326040267944e-01 -2.2790302336215973e-01</leafValues></_>
        <_>
          <internalNodes>
            0 -1 290 -2.3012178018689156e-02</internalNodes>
          <leafValues>
            6.1087745428085327e-01 -1.1490644514560699e-01</leafValues></_>
        <_>
          <internalNodes>
            0 -1 497 2.7197357849217951e-04</internalNodes>
          <leafValues>
            -2.5103312730789185e-01 2.5521555542945862e-01</leafValues></_>
        <_>
          <internalNodes>
            0 -1 336 -2.2151498124003410e-02</internalNodes>
          <leafValues>
            2.5852698087692261e-01 -2.4165056645870209e-01</leafValues></_>
        <_>
          <internalNodes>
            0 -1 286 -8.0769266933202744e-03</internalNodes>
          <leafValues>
            5.0580519437789917e-01 -1.0462550818920135e-01</leafValues></_>
        <_>
          <internalNodes>
            0 -1 118 4.4320131564745679e-06</internalNodes>
          <leafValues>
            -2.2539955377578735e-01 2.7213418483734131e-01</leafValues></_>
        <_>
          <internalNodes>
            0 -1 411 4.5646938815480098e-06</internalNodes>
          <leafValues>
            -2.5363862514495850e-01 2.2583997249603271e-01</leafValues></_>
        <_>
          <internalNodes>
            0 -1 216 4.4782318174839020e-02</internalNodes>
          <leafValues>
            -1.1766634881496429e-01 4.5119157433509827e-01</leafValues></_>
        <_>
          <internalNodes>
            0 -1 111 -3.5982392728328705e-02</internalNodes>
          <leafValues>
            1.9872321188449860e-01 -3.2253468036651611e-01</leafValues></_>
        <_>
          <internalNodes>
            0 -1 530 -2.4900201242417097e-04</internalNodes>
          <leafValues>
            -5.4540908336639404e-01 9.9697239696979523e-02</leafValues></_>
        <_>
          <internalNodes>
            0 -1 361 -2.7981813764199615e-04</internalNodes>
          <leafValues>
            -3.2843044400215149e-01 1.5366987884044647e-01</leafValues></_>
        <_>
          <internalNodes>
            0 -1 50 -4.1954005137085915e-03</internalNodes>
          <leafValues>
            5.0436699390411377e-01 -1.0759306699037552e-01</leafValues></_>
        <_>
          <internalNodes>
            0 -1 74 -1.6529321670532227e-02</internalNodes>
          <leafValues>
            4.5630902051925659e-01 -1.2705199420452118e-01</leafValues></_>
        <_>
          <internalNodes>
            0 -1 438 -2.5389416259713471e-04</internalNodes>
          <leafValues>
            -3.9991709589958191e-01 1.4465244114398956e-01</leafValues></_>
        <_>
          <internalNodes>
            0 -1 403 9.2206033878028393e-04</internalNodes>
          <leafValues>
            -9.9199213087558746e-02 6.0236507654190063e-01</leafValues></_>
        <_>
          <internalNodes>
            0 -1 127 4.8183728940784931e-03</internalNodes>
          <leafValues>
            -1.1492407321929932e-01 4.7739997506141663e-01</leafValues></_>
        <_>
          <internalNodes>
            0 -1 385 4.4130119931651279e-06</internalNodes>
          <leafValues>
            -2.4707610905170441e-01 2.2398522496223450e-01</leafValues></_>
        <_>
          <internalNodes>
            0 -1 88 -3.0861201230436563e-04</internalNodes>
          <leafValues>
            -4.6059969067573547e-01 1.1453374475240707e-01</leafValues></_>
        <_>
          <internalNodes>
            0 -1 192 1.6457850579172373e-03</internalNodes>
          <leafValues>
            -8.3767183125019073e-02 6.5560793876647949e-01</leafValues></_>
        <_>
          <internalNodes>
            0 -1 505 -1.4375196769833565e-04</internalNodes>
          <leafValues>
            -3.2127135992050171e-01 1.5160207450389862e-01</leafValues></_>
        <_>
          <internalNodes>
            0 -1 424 1.2615717947483063e-02</internalNodes>
          <leafValues>
            -1.4032444357872009e-01 3.6521726846694946e-01</leafValues></_>
        <_>
          <internalNodes>
            0 -1 202 6.0634423047304153e-02</internalNodes>
          <leafValues>
            -1.8916232883930206e-01 2.8713065385818481e-01</leafValues></_></weakClassifiers></_>
    <!-- stage 3 -->
    <_>
      <maxWeakCount>27</maxWeakCount>
      <stageThreshold>-1.6995623111724854e+00</stageThreshold>
      <weakClassifiers>
        <_>
          <internalNodes>
            0 -1 245 5.5958449840545654e-02</internalNodes>
          <leafValues>
            -5.9168672561645508e-01 8.0660834908485413e-02</leafValues></_>
        <_>
          <internalNodes>
            0 -1 18 -6.7035285755991936e-03</internalNodes>
          <leafValues>
            2.9321464896202087e-01 -2.8478068113327026e-01</leafValues></_>
        <_>
          <internalNodes>
            0 -1 260 -4.0391191840171814e-02</internalNodes>
          <leafValues>
            3.3070734143257141e-01 -2.3872256278991699e-01</leafValues></_>
        <_>
          <internalNodes>
            0 -1 3 -2.5934556126594543e-01</internalNodes>
          <leafValues>
            -6.6662323474884033e-01 9.4237811863422394e-02</leafValues></_>
        <_>
          <internalNodes>
            0 -1 39 -7.4415970593690872e-03</internalNodes>
          <leafValues>
            2.2715458273887634e-01 -2.8697013854980469e-01</leafValues></_>
        <_>
          <internalNodes>
            0 -1 194 1.8253114074468613e-02</internalNodes>
          <leafValues>
            -1.4392183721065521e-01 4.5605686306953430e-01</leafValues></_>
        <_>
          <internalNodes>
            0 -1 195 -4.1779160499572754e-02</internalNodes>
          <leafValues>
            5.2162623405456543e-01 -1.1652832478284836e-01</leafValues></_>
        <_>
          <internalNodes>
            0 -1 73 2.7704533189535141e-02</internalNodes>
          <leafValues>
            -6.7731492221355438e-02 6.4538049697875977e-01</leafValues></_>
        <_>
          <internalNodes>
            0 -1 171 -2.9805279336869717e-03</internalNodes>
          <leafValues>
            6.9622981548309326e-01 -8.4086500108242035e-02</leafValues></_>
        <_>
          <internalNodes>
            0 -1 413 1.3727629557251930e-03</internalNodes>
          <leafValues>
            -6.3049010932445526e-02 6.0381537675857544e-01</leafValues></_>
        <_>
          <internalNodes>
            0 -1 533 -2.1455959358718246e-04</internalNodes>
          <leafValues>
            -4.7427776455879211e-01 1.1135197430849075e-01</leafValues></_>
        <_>
          <internalNodes>
            0 -1 122 1.3501553330570459e-03</internalNodes>
          <leafValues>
            -1.2570841610431671e-01 5.1101505756378174e-01</leafValues></_>
        <_>
          <internalNodes>
            0 -1 306 1.4583030715584755e-02</internalNodes>
          <leafValues>
            -8.2082606852054596e-02 5.1981681585311890e-01</leafValues></_>
        <_>
          <internalNodes>
            0 -1 502 4.8531073844060302e-06</internalNodes>
          <leafValues>
            -2.4725593626499176e-01 2.1286393702030182e-01</leafValues></_>
        <_>
          <internalNodes>
            0 -1 321 2.9450425063259900e-04</internalNodes>
          <leafValues>
            1.4938755333423615e-01 -3.3503690361976624e-01</leafValues></_>
        <_>
          <internalNodes>
            0 -1 426 4.5640476855624001e-06</internalNodes>
          <leafValues>
            -2.1401777863502502e-01 2.2932545840740204e-01</leafValues></_>
        <_>
          <internalNodes>
            0 -1 209 -1.7077610827982426e-03</internalNodes>
          <leafValues>
            6.4374268054962158e-01 -7.9556472599506378e-02</leafValues></_>
        <_>
          <internalNodes>
            0 -1 84 -1.7391510482411832e-04</internalNodes>
          <leafValues>
            -3.0163720250129700e-01 1.5495644509792328e-01</leafValues></_>
        <_>
          <internalNodes>
            0 -1 85 -3.4743928699754179e-04</internalNodes>
          <leafValues>
            -4.7649937868118286e-01 9.9710106849670410e-02</leafValues></_>
        <_>
          <internalNodes>
            0 -1 108 2.1080003352835774e-04</internalNodes>
          <leafValues>
            1.2300135940313339e-01 -4.0122190117835999e-01</leafValues></_>
        <_>
          <internalNodes>
            0 -1 431 -2.1626227535307407e-03</internalNodes>
          <leafValues>
            2.9520657658576965e-01 -1.7060311138629913e-01</leafValues></_>
        <_>
          <internalNodes>
            0 -1 78 7.7683606650680304e-04</internalNodes>
          <leafValues>
            1.5836583077907562e-01 -3.0783495306968689e-01</leafValues></_>
        <_>
          <internalNodes>
            0 -1 311 3.9739262312650681e-02</internalNodes>
          <leafValues>
            -1.8410070240497589e-01 2.5847390294075012e-01</leafValues></_>
        <_>
          <internalNodes>
            0 -1 380 -1.0895164683461189e-02</internalNodes>
          <leafValues>
            3.2462754845619202e-01 -1.5370409190654755e-01</leafValues></_>
        <_>
          <internalNodes>
            0 -1 229 1.2680183164775372e-02</internalNodes>
          <leafValues>
            -8.6239151656627655e-02 5.6336086988449097e-01</leafValues></_>
        <_>
          <internalNodes>
            0 -1 87 -5.3110852837562561e-02</internalNodes>
          <leafValues>
            4.1009670495986938e-01 -1.0763480514287949e-01</leafValues></_>
        <_>
          <internalNodes>
            0 -1 92 -1.4966854359954596e-03</internalNodes>
          <leafValues>
            -4.2385059595108032e-01 1.1070658266544342e-01</leafValues></_></weakClassifiers></_>
    <!-- stage 4 -->
    <_>
      <maxWeakCount>29</maxWeakCount>
      <stageThreshold>-1.6413631439208984e+00</stageThreshold>
      <weakClassifiers>
        <_>
          <internalNodes>
            0 -1 30 -4.5137219130992889e-02</internalNodes>
          <leafValues>
            -1.6925247386097908e-02 -6.1011368036270142e-01</leafValues></_>
        <_>
          <internalNodes>
            0 -1 147 -1.0555987060070038e-01</internalNodes>
          <leafValues>
            3.4294441342353821e-01 -2.3672129213809967e-01</leafValues></_>
        <_>
          <internalNodes>
            0 -1 96 1.3437043875455856e-02</internalNodes>
          <leafValues>
            -2.8015869855880737e-01 2.6280152797698975e-01</leafValues></_>
        <_>
          <internalNodes>
            0 -1 347 -1.9942458311561495e-04</internalNodes>
          <leafValues>
            -4.7749808430671692e-01 1.2843206524848938e-01</leafValues></_>
        <_>
          <internalNodes>
            0 -1 44 -3.6669417750090361e-04</internalNodes>
          <leafValues>
            -4.3405982851982117e-01 1.4344981312751770e-01</leafValues></_>
        <_>
          <internalNodes>
            0 -1 534 6.4447533804923296e-04</internalNodes>
          <leafValues>
            -1.0916549712419510e-01 5.4194611310958862e-01</leafValues></_>
        <_>
          <internalNodes>
            0 -1 53 -5.6123482063412666e-03</internalNodes>
          <leafValues>
            4.4882562756538391e-01 -1.1766413599252701e-01</leafValues></_>
        <_>
          <internalNodes>
            0 -1 125 2.3293546400964260e-03</internalNodes>
          <leafValues>
            -1.6171477735042572e-01 4.0070372819900513e-01</leafValues></_>
        <_>
          <internalNodes>
            0 -1 352 -2.8634918853640556e-02</internalNodes>
          <leafValues>
            4.8670285940170288e-01 -9.2889674007892609e-02</leafValues></_>
        <_>
          <internalNodes>
            0 -1 264 -2.3539900779724121e-02</internalNodes>
          <leafValues>
            5.6879872083663940e-01 -9.9658608436584473e-02</leafValues></_>
        <_>
          <internalNodes>
            0 -1 138 -6.0775061137974262e-04</internalNodes>
          <leafValues>
            2.9050654172897339e-01 -1.8602295219898224e-01</leafValues></_>
        <_>
          <internalNodes>
            0 -1 338 8.3893560804426670e-04</internalNodes>
          <leafValues>
            1.6648983955383301e-01 -3.1514278054237366e-01</leafValues></_>
        <_>
          <internalNodes>
            0 -1 102 -6.7082623718306422e-04</internalNodes>
          <leafValues>
            5.6622362136840820e-01 -1.0327515751123428e-01</leafValues></_>
        <_>
          <internalNodes>
            0 -1 29 1.2959251180291176e-03</internalNodes>
          <leafValues>
            1.0572117567062378e-01 -5.7086241245269775e-01</leafValues></_>
        <_>
          <internalNodes>
            0 -1 399 -2.9271766543388367e-02</internalNodes>
          <leafValues>
            4.1712531447410583e-01 -1.1862237006425858e-01</leafValues></_>
        <_>
          <internalNodes>
            0 -1 406 -3.1567749101668596e-04</internalNodes>
          <leafValues>
            5.7467103004455566e-01 -7.9369105398654938e-02</leafValues></_>
        <_>
          <internalNodes>
            0 -1 528 -9.0719011495821178e-05</internalNodes>
          <leafValues>
            -3.7003844976425171e-01 1.2902306020259857e-01</leafValues></_>
        <_>
          <internalNodes>
            0 -1 500 3.4716539084911346e-04</internalNodes>
          <leafValues>
            -1.0191639512777328e-01 4.4559267163276672e-01</leafValues></_>
        <_>
          <internalNodes>
            0 -1 198 4.6820723582641222e-06</internalNodes>
          <leafValues>
            -2.0760010182857513e-01 2.2571629285812378e-01</leafValues></_>
        <_>
          <internalNodes>
            0 -1 115 4.8426255583763123e-02</internalNodes>
          <leafValues>
            -6.9854564964771271e-02 6.4023494720458984e-01</leafValues></_>
        <_>
          <internalNodes>
            0 -1 323 7.2411550208926201e-03</internalNodes>
          <leafValues>
            8.0111972987651825e-02 -6.3507056236267090e-01</leafValues></_>
        <_>
          <internalNodes>
            0 -1 278 -1.0982118546962738e-01</internalNodes>
          <leafValues>
            7.1999049186706543e-01 -7.8128315508365631e-02</leafValues></_>
        <_>
          <internalNodes>
            0 -1 86 7.2478712536394596e-04</internalNodes>
          <leafValues>
            1.0024511814117432e-01 -5.3841274976730347e-01</leafValues></_>
        <_>
          <internalNodes>
            0 -1 468 4.3440677472972311e-06</internalNodes>
          <leafValues>
            -2.1754243969917297e-01 2.2002619504928589e-01</leafValues></_>
        <_>
          <internalNodes>
            0 -1 222 -4.4491061998996884e-06</internalNodes>
          <leafValues>
            2.5242352485656738e-01 -1.8962052464485168e-01</leafValues></_>
        <_>
          <internalNodes>
            0 -1 33 4.5345946091401856e-06</internalNodes>
          <leafValues>
            -1.8481446802616119e-01 2.4500247836112976e-01</leafValues></_>
        <_>
          <internalNodes>
            0 -1 190 5.0734838623611722e-06</internalNodes>
          <leafValues>
            -1.8994134664535522e-01 2.3588010668754578e-01</leafValues></_>
        <_>
          <internalNodes>
            0 -1 420 -4.1848639957606792e-03</internalNodes>
          <leafValues>
            3.0973881483078003e-01 -1.4546155929565430e-01</leafValues></_>
        <_>
          <internalNodes>
            0 -1 458 2.7993714320473373e-04</internalNodes>
          <leafValues>
            1.2032734602689743e-01 -3.8736954331398010e-01</leafValues></_></weakClassifiers></_>
    <!-- stage 5 -->
    <_>
      <maxWeakCount>25</maxWeakCount>
      <stageThreshold>-1.5678093433380127e+00</stageThreshold>
      <weakClassifiers>
        <_>
          <internalNodes>
            0 -1 319 -1.6706936061382294e-02</internalNodes>
          <leafValues>
            4.0203192830085754e-01 -5.9071898460388184e-01</leafValues></_>
        <_>
          <internalNodes>
            0 -1 12 -2.7725386619567871e-01</internalNodes>
          <leafValues>
            -8.8485378026962280e-01 4.2615421116352081e-02</leafValues></_>
        <_>
          <internalNodes>
            0 -1 231 -3.1832985579967499e-02</internalNodes>
          <leafValues>
            3.2392123341560364e-01 -2.5291144847869873e-01</leafValues></_>
        <_>
          <internalNodes>
            0 -1 8 -2.9311701655387878e-02</internalNodes>
          <leafValues>
            -7.3033869266510010e-01 1.4824636280536652e-01</leafValues></_>
        <_>
          <internalNodes>
            0 -1 236 -1.4508869498968124e-02</internalNodes>
          <leafValues>
            5.4140448570251465e-01 -1.3939230144023895e-01</leafValues></_>
        <_>
          <internalNodes>
            0 -1 83 -1.2831145897507668e-02</internalNodes>
          <leafValues>
            2.9258444905281067e-01 -2.0029313862323761e-01</leafValues></_>
        <_>
          <internalNodes>
            0 -1 185 4.3701924383640289e-02</internalNodes>
          <leafValues>
            -1.8021126091480255e-01 4.3691760301589966e-01</leafValues></_>
        <_>
          <internalNodes>
            0 -1 250 8.7827183306217194e-03</internalNodes>
          <leafValues>
            -1.8597093224525452e-01 3.2290732860565186e-01</leafValues></_>
        <_>
          <internalNodes>
            0 -1 230 -1.2451511807739735e-02</internalNodes>
          <leafValues>
            4.4868111610412598e-01 -1.2032876163721085e-01</leafValues></_>
        <_>
          <internalNodes>
            0 -1 296 -4.2491517961025238e-03</internalNodes>
          <leafValues>
            -7.9599916934967041e-01 7.1293361485004425e-02</leafValues></_>
        <_>
          <internalNodes>
            0 -1 531 2.0140862034168094e-04</internalNodes>
          <leafValues>
            1.1483164131641388e-01 -4.6975874900817871e-01</leafValues></_>
        <_>
          <internalNodes>
            0 -1 400 -3.3995159901678562e-03</internalNodes>
          <leafValues>
            7.2190034389495850e-01 -1.0315442085266113e-01</leafValues></_>
        <_>
          <internalNodes>
            0 -1 349 -1.2057934509357437e-04</internalNodes>
          <leafValues>
            -3.3761197328567505e-01 1.9039003551006317e-01</leafValues></_>
        <_>
          <internalNodes>
            0 -1 9 -3.3839151263237000e-02</internalNodes>
          <leafValues>
            2.9327654838562012e-01 -2.0116396248340607e-01</leafValues></_>
        <_>
          <internalNodes>
            0 -1 91 -4.2982911691069603e-03</internalNodes>
          <leafValues>
            7.3822188377380371e-01 -8.0989770591259003e-02</leafValues></_>
        <_>
          <internalNodes>
            0 -1 302 -7.6748323626816273e-03</internalNodes>
          <leafValues>
            4.5877087116241455e-01 -1.1592633277177811e-01</leafValues></_>
        <_>
          <internalNodes>
            0 -1 223 -1.5239700442180037e-03</internalNodes>
          <leafValues>
            8.6778336763381958e-01 -5.0472382456064224e-02</leafValues></_>
        <_>
          <internalNodes>
            0 -1 499 1.0111508890986443e-03</internalNodes>
          <leafValues>
            1.6494056582450867e-01 -3.6442744731903076e-01</leafValues></_>
        <_>
          <internalNodes>
            0 -1 218 1.4815687201917171e-02</internalNodes>
          <leafValues>
            -1.5033857524394989e-01 3.9661946892738342e-01</leafValues></_>
        <_>
          <internalNodes>
            0 -1 417 -4.5054985093884170e-06</internalNodes>
          <leafValues>
            2.9066896438598633e-01 -1.9264136254787445e-01</leafValues></_>
        <_>
          <internalNodes>
            0 -1 79 1.8812620546668768e-03</internalNodes>
          <leafValues>
            1.6846832633018494e-01 -3.3845263719558716e-01</leafValues></_>
        <_>
          <internalNodes>
            0 -1 200 -6.9239977747201920e-03</internalNodes>
          <leafValues>
            5.3496527671813965e-01 -1.0661740601062775e-01</leafValues></_>
        <_>
          <internalNodes>
            0 -1 439 -7.4247717857360840e-03</internalNodes>
          <leafValues>
            4.2684197425842285e-01 -1.2068101763725281e-01</leafValues></_>
        <_>
          <internalNodes>
            0 -1 381 7.0570111274719238e-02</internalNodes>
          <leafValues>
            -8.3342261612415314e-02 6.6525304317474365e-01</leafValues></_>
        <_>
          <internalNodes>
            0 -1 143 -3.0934149399399757e-03</internalNodes>
          <leafValues>
            9.5643621683120728e-01 -5.7627215981483459e-02</leafValues></_></weakClassifiers></_>
    <!-- stage 6 -->
    <_>
      <maxWeakCount>33</maxWeakCount>
      <stageThreshold>-1.6598343849182129e+00</stageThreshold>
      <weakClassifiers>
        <_>
          <internalNodes>
            0 -1 226 1.0742902010679245e-01</internalNodes>
          <leafValues>
            -5.6182795763015747e-01 1.1782477051019669e-01</leafValues></_>
        <_>
          <internalNodes>
            0 -1 435 4.3440677472972311e-06</internalNodes>
          <leafValues>
            -2.8889504075050354e-01 1.4228025078773499e-01</leafValues></_>
        <_>
          <internalNodes>
            0 -1 145 -2.0336699672043324e-03</internalNodes>
          <leafValues>
            4.2896372079849243e-01 -1.1576481163501740e-01</leafValues></_>
        <_>
          <internalNodes>
            0 -1 282 -6.2275294214487076e-02</internalNodes>
          <leafValues>
            3.4101909399032593e-01 -1.5339100360870361e-01</leafValues></_>
        <_>
          <internalNodes>
            0 -1 455 2.7298362692818046e-04</internalNodes>
          <leafValues>
            -2.2599682211875916e-01 1.9964525103569031e-01</leafValues></_>
        <_>
          <internalNodes>
            0 -1 197 4.4650673771684524e-06</internalNodes>
          <leafValues>
            -1.6320678591728210e-01 2.6659548282623291e-01</leafValues></_>
        <_>
          <internalNodes>
            0 -1 298 -3.5475462675094604e-02</internalNodes>
          <leafValues>
            4.7529771924018860e-01 -1.1564340442419052e-01</leafValues></_>
        <_>
          <internalNodes>
            0 -1 158 1.6516968607902527e-03</internalNodes>
          <leafValues>
            -7.6676912605762482e-02 5.6908434629440308e-01</leafValues></_>
        <_>
          <internalNodes>
            0 -1 0 -2.1942573948763311e-04</internalNodes>
          <leafValues>
            -3.6026152968406677e-01 1.4629700779914856e-01</leafValues></_>
        <_>
          <internalNodes>
            0 -1 7 -3.6459259688854218e-02</internalNodes>
          <leafValues>
            4.4590178132057190e-01 -1.1434657126665115e-01</leafValues></_>
        <_>
          <internalNodes>
            0 -1 46 1.0327408090233803e-02</internalNodes>
          <leafValues>
            -9.7628302872180939e-02 4.5466876029968262e-01</leafValues></_>
        <_>
          <internalNodes>
            0 -1 164 3.3924519084393978e-04</internalNodes>
          <leafValues>
            1.5897306799888611e-01 -2.8342071175575256e-01</leafValues></_>
        <_>
          <internalNodes>
            0 -1 418 1.8782267579808831e-03</internalNodes>
          <leafValues>
            -9.5416575670242310e-02 4.3446984887123108e-01</leafValues></_>
        <_>
          <internalNodes>
            0 -1 217 -1.0572934523224831e-02</internalNodes>
          <leafValues>
            3.7668716907501221e-01 -1.2103039771318436e-01</leafValues></_>
        <_>
          <internalNodes>
            0 -1 346 2.1481575095094740e-04</internalNodes>
          <leafValues>
            1.2729895114898682e-01 -4.0771660208702087e-01</leafValues></_>
        <_>
          <internalNodes>
            0 -1 42 6.5459418692626059e-05</internalNodes>
          <leafValues>
            1.3379089534282684e-01 -3.4550920128822327e-01</leafValues></_>
        <_>
          <internalNodes>
            0 -1 433 6.8498719483613968e-03</internalNodes>
          <leafValues>
            -2.0305842161178589e-01 2.4899069964885712e-01</leafValues></_>
        <_>
          <internalNodes>
            0 -1 326 -4.8614218831062317e-03</internalNodes>
          <leafValues>
            -4.9380633234977722e-01 9.1131940484046936e-02</leafValues></_>
        <_>
          <internalNodes>
            0 -1 322 4.9321437254548073e-03</internalNodes>
          <leafValues>
            6.5896414220333099e-02 -6.4341562986373901e-01</leafValues></_>
        <_>
          <internalNodes>
            0 -1 509 7.0608337409794331e-04</internalNodes>
          <leafValues>
            1.3557648658752441e-01 -3.1535914540290833e-01</leafValues></_>
        <_>
          <internalNodes>
            0 -1 176 3.4412063541822135e-04</internalNodes>
          <leafValues>
            -7.9898059368133545e-02 5.8151012659072876e-01</leafValues></_>
        <_>
          <internalNodes>
            0 -1 512 -1.0765431943582371e-04</internalNodes>
          <leafValues>
            -3.4955921769142151e-01 1.3010051846504211e-01</leafValues></_>
        <_>
          <internalNodes>
            0 -1 524 1.6755610704421997e-04</internalNodes>
          <leafValues>
            1.0897321254014969e-01 -3.6655473709106445e-01</leafValues></_>
        <_>
          <internalNodes>
            0 -1 142 1.5785516006872058e-03</internalNodes>
          <leafValues>
            -1.0196180641651154e-01 4.3115741014480591e-01</leafValues></_>
        <_>
          <internalNodes>
            0 -1 131 -4.8776209951029159e-06</internalNodes>
          <leafValues>
            1.9970774650573730e-01 -1.9691275060176849e-01</leafValues></_>
        <_>
          <internalNodes>
            0 -1 232 1.0443087376188487e-04</internalNodes>
          <leafValues>
            1.5684586763381958e-01 -2.6555690169334412e-01</leafValues></_>
        <_>
          <internalNodes>
            0 -1 178 5.0269939005374908e-02</internalNodes>
          <leafValues>
            -8.9399076998233795e-02 4.5373123884201050e-01</leafValues></_>
        <_>
          <internalNodes>
            0 -1 77 -1.2715009972453117e-02</internalNodes>
          <leafValues>
            2.4362556636333466e-01 -1.6549459099769592e-01</leafValues></_>
        <_>
          <internalNodes>
            0 -1 63 6.7634764127433300e-04</internalNodes>
          <leafValues>
            6.6967666149139404e-02 -6.0347175598144531e-01</leafValues></_>
        <_>
          <internalNodes>
            0 -1 177 1.1387530714273453e-02</internalNodes>
          <leafValues>
            -1.5843845903873444e-01 2.8156143426895142e-01</leafValues></_>
        <_>
          <internalNodes>
            0 -1 210 4.4118609279394150e-02</internalNodes>
          <leafValues>
            -1.0255929827690125e-01 3.7617406249046326e-01</leafValues></_>
        <_>
          <internalNodes>
            0 -1 293 2.8556303004734218e-04</internalNodes>
          <leafValues>
            1.3514155149459839e-01 -3.1140324473381042e-01</leafValues></_>
        <_>
          <internalNodes>
            0 -1 288 4.6709634363651276e-02</internalNodes>
          <leafValues>
            -1.2321694195270538e-01 3.2345378398895264e-01</leafValues></_></weakClassifiers></_>
    <!-- stage 7 -->
    <_>
      <maxWeakCount>33</maxWeakCount>
      <stageThreshold>-1.6405365467071533e+00</stageThreshold>
      <weakClassifiers>
        <_>
          <internalNodes>
            0 -1 318 5.2303258329629898e-02</internalNodes>
          <leafValues>
            -5.9354281425476074e-01 1.3745704665780067e-02</leafValues></_>
        <_>
          <internalNodes>
            0 -1 182 2.2175012156367302e-02</internalNodes>
          <leafValues>
            -2.4454790353775024e-01 2.4248158931732178e-01</leafValues></_>
        <_>
          <internalNodes>
            0 -1 508 -1.9989827647805214e-02</internalNodes>
          <leafValues>
            -6.9308382272720337e-01 7.6905123889446259e-02</leafValues></_>
        <_>
          <internalNodes>
            0 -1 195 1.5478137880563736e-02</internalNodes>
          <leafValues>
            -1.1530976742506027e-01 4.2184045910835266e-01</leafValues></_>
        <_>
          <internalNodes>
            0 -1 414 3.2989092869684100e-04</internalNodes>
          <leafValues>
            -8.8462643325328827e-02 6.4023697376251221e-01</leafValues></_>
        <_>
          <internalNodes>
            0 -1 284 2.2416494903154671e-04</internalNodes>
          <leafValues>
            2.0435826480388641e-01 -2.4980881810188293e-01</leafValues></_>
        <_>
          <internalNodes>
            0 -1 187 2.0609688013792038e-02</internalNodes>
          <leafValues>
            -2.8025585412979126e-01 2.0863570272922516e-01</leafValues></_>
        <_>
          <internalNodes>
            0 -1 301 -1.0845661163330078e-02</internalNodes>
          <leafValues>
            7.8443706035614014e-01 -3.7728052586317062e-02</leafValues></_>
        <_>
          <internalNodes>
            0 -1 98 -2.5060733314603567e-03</internalNodes>
          <leafValues>
            5.9840083122253418e-01 -6.4132064580917358e-02</leafValues></_>
        <_>
          <internalNodes>
            0 -1 368 -3.5059277433902025e-04</internalNodes>
          <leafValues>
            -3.3871987462043762e-01 1.3675063848495483e-01</leafValues></_>
        <_>
          <internalNodes>
            0 -1 174 3.4211245365440845e-03</internalNodes>
          <leafValues>
            -1.0720337182283401e-01 5.2682060003280640e-01</leafValues></_>
        <_>
          <internalNodes>
            0 -1 133 1.0850226972252131e-03</internalNodes>
          <leafValues>
            -1.4493031799793243e-01 2.8831285238265991e-01</leafValues></_>
        <_>
          <internalNodes>
            0 -1 276 -6.0717118903994560e-03</internalNodes>
          <leafValues>
            4.4282257556915283e-01 -1.0503029078245163e-01</leafValues></_>
        <_>
          <internalNodes>
            0 -1 459 -1.7607940826565027e-03</internalNodes>
          <leafValues>
            4.3424409627914429e-01 -1.0187460482120514e-01</leafValues></_>
        <_>
          <internalNodes>
            0 -1 446 -7.0223082730080932e-05</internalNodes>
          <leafValues>
            -2.9250758886337280e-01 1.4521427452564240e-01</leafValues></_>
        <_>
          <internalNodes>
            0 -1 324 -5.2897646091878414e-03</internalNodes>
          <leafValues>
            -4.6359020471572876e-01 9.1844163835048676e-02</leafValues></_>
        <_>
          <internalNodes>
            0 -1 366 -1.5544728375971317e-04</internalNodes>
          <leafValues>
            -2.7790641784667969e-01 1.7007483541965485e-01</leafValues></_>
        <_>
          <internalNodes>
            0 -1 391 -1.4587053097784519e-02</internalNodes>
          <leafValues>
            5.4540038108825684e-01 -8.1306315958499908e-02</leafValues></_>
        <_>
          <internalNodes>
            0 -1 410 7.4974528979510069e-04</internalNodes>
          <leafValues>
            -4.8991467803716660e-02 7.4516069889068604e-01</leafValues></_>
        <_>
          <internalNodes>
            0 -1 504 4.5377778405963909e-06</internalNodes>
          <leafValues>
            -2.0271138846874237e-01 2.0133340358734131e-01</leafValues></_>
        <_>
          <internalNodes>
            0 -1 57 -2.1173302084207535e-03</internalNodes>
          <leafValues>
            5.4141139984130859e-01 -7.3648102581501007e-02</leafValues></_>
        <_>
          <internalNodes>
            0 -1 387 9.0450877323746681e-03</internalNodes>
          <leafValues>
            -7.6779633760452271e-02 5.1099771261215210e-01</leafValues></_>
        <_>
          <internalNodes>
            0 -1 6 5.5408436805009842e-02</internalNodes>
          <leafValues>
            6.1444483697414398e-02 -7.4033212661743164e-01</leafValues></_>
        <_>
          <internalNodes>
            0 -1 47 -4.5381683111190796e-01</internalNodes>
          <leafValues>
            -7.8653579950332642e-01 4.0547203272581100e-02</leafValues></_>
        <_>
          <internalNodes>
            0 -1 510 -5.2700558444485068e-04</internalNodes>
          <leafValues>
            -4.9606642127037048e-01 7.0646427571773529e-02</leafValues></_>
        <_>
          <internalNodes>
            0 -1 375 3.4160463837906718e-04</internalNodes>
          <leafValues>
            1.2338682264089584e-01 -3.1391236186027527e-01</leafValues></_>
        <_>
          <internalNodes>
            0 -1 427 -2.6799635961651802e-03</internalNodes>
          <leafValues>
            4.5091527700424194e-01 -9.7226984798908234e-02</leafValues></_>
        <_>
          <internalNodes>
            0 -1 97 -1.2101284228265285e-02</internalNodes>
          <leafValues>
            4.0768188238143921e-01 -9.9183715879917145e-02</leafValues></_>
        <_>
          <internalNodes>
            0 -1 120 1.2854746542870998e-02</internalNodes>
          <leafValues>
            -1.1465438455343246e-01 3.6733978986740112e-01</leafValues></_>
        <_>
          <internalNodes>
            0 -1 258 -2.8410639613866806e-02</internalNodes>
          <leafValues>
            2.2407920658588409e-01 -1.9185206294059753e-01</leafValues></_>
        <_>
          <internalNodes>
            0 -1 350 -3.4376158146187663e-04</internalNodes>
          <leafValues>
            -3.1893944740295410e-01 1.4283774793148041e-01</leafValues></_>
        <_>
          <internalNodes>
            0 -1 498 -5.2099395543336868e-04</internalNodes>
          <leafValues>
            -5.2185070514678955e-01 7.9051174223423004e-02</leafValues></_>
        <_>
          <internalNodes>
            0 -1 100 -2.5709558278322220e-02</internalNodes>
          <leafValues>
            4.9740540981292725e-01 -9.4316013157367706e-02</leafValues></_></weakClassifiers></_>
    <!-- stage 8 -->
    <_>
      <maxWeakCount>31</maxWeakCount>
      <stageThreshold>-1.6259659528732300e+00</stageThreshold>
      <weakClassifiers>
        <_>
          <internalNodes>
            0 -1 344 -2.7895648032426834e-02</internalNodes>
          <leafValues>
            2.2891566157341003e-01 -5.7192796468734741e-01</leafValues></_>
        <_>
          <internalNodes>
            0 -1 407 -5.9699232224375010e-04</internalNodes>
          <leafValues>
            6.0139417648315430e-01 -1.5651623904705048e-01</leafValues></_>
        <_>
          <internalNodes>
            0 -1 332 1.4025049284100533e-02</internalNodes>
          <leafValues>
            -1.0424490272998810e-01 5.1960223913192749e-01</leafValues></_>
        <_>
          <internalNodes>
            0 -1 330 1.3854891061782837e-02</internalNodes>
          <leafValues>
            -7.6059311628341675e-02 5.4308229684829712e-01</leafValues></_>
        <_>
          <internalNodes>
            0 -1 393 4.0042254840955138e-04</internalNodes>
          <leafValues>
            -5.8512747287750244e-02 6.9628030061721802e-01</leafValues></_>
        <_>
          <internalNodes>
            0 -1 58 -1.3221367262303829e-03</internalNodes>
          <leafValues>
            4.0826117992401123e-01 -1.0504868626594543e-01</leafValues></_>
        <_>
          <internalNodes>
            0 -1 23 3.7328721955418587e-03</internalNodes>
          <leafValues>
            -1.1173395067453384e-01 4.5965063571929932e-01</leafValues></_>
        <_>
          <internalNodes>
            0 -1 527 -3.4624684485606849e-04</internalNodes>
          <leafValues>
            -4.8334929347038269e-01 1.0288570821285248e-01</leafValues></_>
        <_>
          <internalNodes>
            0 -1 308 -4.8339744098484516e-03</internalNodes>
          <leafValues>
            4.4534727931022644e-01 -9.9278368055820465e-02</leafValues></_>
        <_>
          <internalNodes>
            0 -1 460 1.5977089060470462e-03</internalNodes>
          <leafValues>
            -6.9381482899188995e-02 7.1254533529281616e-01</leafValues></_>
        <_>
          <internalNodes>
            0 -1 135 -7.4548064731061459e-04</internalNodes>
          <leafValues>
            -4.7387346625328064e-01 1.0507380217313766e-01</leafValues></_>
        <_>
          <internalNodes>
            0 -1 112 4.3786533176898956e-02</internalNodes>
          <leafValues>
            -1.1802896112203598e-01 4.2604705691337585e-01</leafValues></_>
        <_>
          <internalNodes>
            0 -1 166 -4.5646938815480098e-06</internalNodes>
          <leafValues>
            2.1996749937534332e-01 -2.1675170958042145e-01</leafValues></_>
        <_>
          <internalNodes>
            0 -1 152 1.2764270650222898e-04</internalNodes>
          <leafValues>
            1.2894727289676666e-01 -3.5342469811439514e-01</leafValues></_>
        <_>
          <internalNodes>
            0 -1 471 -1.3515292084775865e-04</internalNodes>
          <leafValues>
            -3.3564576506614685e-01 1.3136942684650421e-01</leafValues></_>
        <_>
          <internalNodes>
            0 -1 355 1.4332209248095751e-03</internalNodes>
          <leafValues>
            -1.0891748964786530e-01 4.3682080507278442e-01</leafValues></_>
        <_>
          <internalNodes>
            0 -1 173 -9.1544841416180134e-04</internalNodes>
          <leafValues>
            5.9266299009323120e-01 -7.2450838983058929e-02</leafValues></_>
        <_>
          <internalNodes>
            0 -1 56 9.4911834457889199e-04</internalNodes>
          <leafValues>
            1.2492965161800385e-01 -3.4089329838752747e-01</leafValues></_>
        <_>
          <internalNodes>
            0 -1 75 -1.0563225951045752e-03</internalNodes>
          <leafValues>
            3.9184853434562683e-01 -1.1964456737041473e-01</leafValues></_>
        <_>
          <internalNodes>
            0 -1 292 2.0760108600370586e-04</internalNodes>
          <leafValues>
            1.0135021060705185e-01 -4.6608507633209229e-01</leafValues></_>
        <_>
          <internalNodes>
            0 -1 482 -1.2066983617842197e-04</internalNodes>
          <leafValues>
            -3.3831492066383362e-01 1.2603658437728882e-01</leafValues></_>
        <_>
          <internalNodes>
            0 -1 76 1.6971032600849867e-03</internalNodes>
          <leafValues>
            -1.1042976379394531e-01 4.1655486822128296e-01</leafValues></_>
        <_>
          <internalNodes>
            0 -1 488 2.9253456741571426e-03</internalNodes>
          <leafValues>
            1.2805083394050598e-01 -3.3929273486137390e-01</leafValues></_>
        <_>
          <internalNodes>
            0 -1 487 -1.6765606123954058e-03</internalNodes>
          <leafValues>
            4.0009126067161560e-01 -1.1188568919897079e-01</leafValues></_>
        <_>
          <internalNodes>
            0 -1 486 9.7585935145616531e-04</internalNodes>
          <leafValues>
            -1.2802265584468842e-01 3.4730169177055359e-01</leafValues></_>
        <_>
          <internalNodes>
            0 -1 151 4.7250168790924363e-06</internalNodes>
          <leafValues>
            -2.0244790613651276e-01 2.2459273040294647e-01</leafValues></_>
        <_>
          <internalNodes>
            0 -1 238 -2.2670781239867210e-02</internalNodes>
          <leafValues>
            1.8472121655941010e-01 -2.4254895746707916e-01</leafValues></_>
        <_>
          <internalNodes>
            0 -1 357 -3.4180853981524706e-03</internalNodes>
          <leafValues>
            5.1421415805816650e-01 -8.9990369975566864e-02</leafValues></_>
        <_>
          <internalNodes>
            0 -1 340 -2.1830851619597524e-04</internalNodes>
          <leafValues>
            -3.3602699637413025e-01 1.3216072320938110e-01</leafValues></_>
        <_>
          <internalNodes>
            0 -1 19 -4.1413749568164349e-04</internalNodes>
          <leafValues>
            2.6283320784568787e-01 -1.8166659772396088e-01</leafValues></_>
        <_>
          <internalNodes>
            0 -1 103 4.4090136885643005e-02</internalNodes>
          <leafValues>
            -9.5068454742431641e-02 4.7725209593772888e-01</leafValues></_></weakClassifiers></_>
    <!-- stage 9 -->
    <_>
      <maxWeakCount>25</maxWeakCount>
      <stageThreshold>-1.5892795324325562e+00</stageThreshold>
      <weakClassifiers>
        <_>
          <internalNodes>
            0 -1 211 7.9274162650108337e-02</internalNodes>
          <leafValues>
            -5.7727086544036865e-01 2.5252524018287659e-01</leafValues></_>
        <_>
          <internalNodes>
            0 -1 15 -4.2815372347831726e-02</internalNodes>
          <leafValues>
            2.4421952664852142e-01 -2.7289259433746338e-01</leafValues></_>
        <_>
          <internalNodes>
            0 -1 156 1.0414298158138990e-03</internalNodes>
          <leafValues>
            -1.0908107459545135e-01 5.4837334156036377e-01</leafValues></_>
        <_>
          <internalNodes>
            0 -1 121 -1.4510249719023705e-02</internalNodes>
          <leafValues>
            4.6863725781440735e-01 -1.1150350421667099e-01</leafValues></_>
        <_>
          <internalNodes>
            0 -1 172 4.3525174260139465e-03</internalNodes>
          <leafValues>
            -8.8489435613155365e-02 5.9278345108032227e-01</leafValues></_>
        <_>
          <internalNodes>
            0 -1 536 6.8008787930011749e-03</internalNodes>
          <leafValues>
            7.5861066579818726e-02 -8.8604575395584106e-01</leafValues></_>
        <_>
          <internalNodes>
            0 -1 134 1.6250152839347720e-04</internalNodes>
          <leafValues>
            1.4011918008327484e-01 -4.5769059658050537e-01</leafValues></_>
        <_>
          <internalNodes>
            0 -1 397 6.1579784378409386e-03</internalNodes>
          <leafValues>
            -1.8629626929759979e-01 3.6759644746780396e-01</leafValues></_>
        <_>
          <internalNodes>
            0 -1 479 1.8372165504842997e-04</internalNodes>
          <leafValues>
            1.6980384290218353e-01 -4.0570706129074097e-01</leafValues></_>
        <_>
          <internalNodes>
            0 -1 501 3.0817494262009859e-03</internalNodes>
          <leafValues>
            1.0552725940942764e-01 -4.3359240889549255e-01</leafValues></_>
        <_>
          <internalNodes>
            0 -1 235 -2.3868482559919357e-02</internalNodes>
          <leafValues>
            4.2979118227958679e-01 -1.1516669392585754e-01</leafValues></_>
        <_>
          <internalNodes>
            0 -1 124 1.0571666061878204e-03</internalNodes>
          <leafValues>
            -1.3968119025230408e-01 3.7052679061889648e-01</leafValues></_>
        <_>
          <internalNodes>
            0 -1 38 -1.4662962348666042e-04</internalNodes>
          <leafValues>
            -4.2048853635787964e-01 1.2829761207103729e-01</leafValues></_>
        <_>
          <internalNodes>
            0 -1 31 -3.3850129693746567e-03</internalNodes>
          <leafValues>
            3.1678944826126099e-01 -1.7332521080970764e-01</leafValues></_>
        <_>
          <internalNodes>
            0 -1 525 4.1989542296505533e-06</internalNodes>
          <leafValues>
            -1.9959667325019836e-01 3.0096024274826050e-01</leafValues></_>
        <_>
          <internalNodes>
            0 -1 422 -1.9877646118402481e-03</internalNodes>
          <leafValues>
            5.4339993000030518e-01 -8.3759605884552002e-02</leafValues></_>
        <_>
          <internalNodes>
            0 -1 453 1.8929437501356006e-03</internalNodes>
          <leafValues>
            -2.2339344024658203e-01 2.1233612298965454e-01</leafValues></_>
        <_>
          <internalNodes>
            0 -1 388 5.6127440184354782e-03</internalNodes>
          <leafValues>
            -1.3679426908493042e-01 4.0455394983291626e-01</leafValues></_>
        <_>
          <internalNodes>
            0 -1 325 -1.1288078967481852e-03</internalNodes>
          <leafValues>
            -4.5142340660095215e-01 1.1145188659429550e-01</leafValues></_>
        <_>
          <internalNodes>
            0 -1 179 2.9678534716367722e-02</internalNodes>
          <leafValues>
            -1.1961752176284790e-01 3.8365602493286133e-01</leafValues></_>
        <_>
          <internalNodes>
            0 -1 212 1.7214834224432707e-03</internalNodes>
          <leafValues>
            -1.9423349201679230e-01 2.2981013357639313e-01</leafValues></_>
        <_>
          <internalNodes>
            0 -1 402 -8.4603601135313511e-04</internalNodes>
          <leafValues>
            5.4301279783248901e-01 -8.3313599228858948e-02</leafValues></_>
        <_>
          <internalNodes>
            0 -1 335 2.7116161072626710e-04</internalNodes>
          <leafValues>
            1.5601797401905060e-01 -2.9445534944534302e-01</leafValues></_>
        <_>
          <internalNodes>
            0 -1 181 1.3628446031361818e-03</internalNodes>
          <leafValues>
            -1.3331732153892517e-01 3.4874153137207031e-01</leafValues></_>
        <_>
          <internalNodes>
            0 -1 365 -6.3418439822271466e-05</internalNodes>
          <leafValues>
            -2.4209317564964294e-01 2.0219522714614868e-01</leafValues></_></weakClassifiers></_>
    <!-- stage 10 -->
    <_>
      <maxWeakCount>26</maxWeakCount>
      <stageThreshold>-1.5548624992370605e+00</stageThreshold>
      <weakClassifiers>
        <_>
          <internalNodes>
            0 -1 382 1.4713974669575691e-02</internalNodes>
          <leafValues>
            -6.4297914505004883e-01 -1.5035587549209595e-01</leafValues></_>
        <_>
          <internalNodes>
            0 -1 506 -1.5253480523824692e-02</internalNodes>
          <leafValues>
            -7.7572965621948242e-01 2.0266195759177208e-02</leafValues></_>
        <_>
          <internalNodes>
            0 -1 462 9.6568500157445669e-04</internalNodes>
          <leafValues>
            -7.1517139673233032e-02 6.0925126075744629e-01</leafValues></_>
        <_>
          <internalNodes>
            0 -1 516 -1.2891493737697601e-02</internalNodes>
          <leafValues>
            -6.5297096967697144e-01 6.8790450692176819e-02</leafValues></_>
        <_>
          <internalNodes>
            0 -1 405 1.1953806970268488e-03</internalNodes>
          <leafValues>
            -7.3476664721965790e-02 6.7844504117965698e-01</leafValues></_>
        <_>
          <internalNodes>
            0 -1 351 1.8012491636909544e-04</internalNodes>
          <leafValues>
            1.2185973674058914e-01 -4.3566149473190308e-01</leafValues></_>
        <_>
          <internalNodes>
            0 -1 283 4.8146821558475494e-02</internalNodes>
          <leafValues>
            -9.9721685051918030e-02 5.2075344324111938e-01</leafValues></_>
        <_>
          <internalNodes>
            0 -1 241 -2.8216361999511719e-02</internalNodes>
          <leafValues>
            4.1989096999168396e-01 -1.2173222750425339e-01</leafValues></_>
        <_>
          <internalNodes>
            0 -1 113 3.0990727245807648e-03</internalNodes>
          <leafValues>
            -7.8529991209506989e-02 5.7990288734436035e-01</leafValues></_>
        <_>
          <internalNodes>
            0 -1 383 6.4399698749184608e-04</internalNodes>
          <leafValues>
            9.4068937003612518e-02 -5.4533565044403076e-01</leafValues></_>
        <_>
          <internalNodes>
            0 -1 341 -4.0945537388324738e-02</internalNodes>
          <leafValues>
            4.2470753192901611e-01 -1.1430775374174118e-01</leafValues></_>
        <_>
          <internalNodes>
            0 -1 481 4.5321967263589613e-06</internalNodes>
          <leafValues>
            -2.3701594769954681e-01 2.5547856092453003e-01</leafValues></_>
        <_>
          <internalNodes>
            0 -1 392 5.8039533905684948e-04</internalNodes>
          <leafValues>
            -9.5058940351009369e-02 6.1285275220870972e-01</leafValues></_>
        <_>
          <internalNodes>
            0 -1 199 -2.5452864356338978e-03</internalNodes>
          <leafValues>
            4.8081830143928528e-01 -1.0428941249847412e-01</leafValues></_>
        <_>
          <internalNodes>
            0 -1 26 -5.7001926004886627e-02</internalNodes>
          <leafValues>
            3.5747295618057251e-01 -1.2008840590715408e-01</leafValues></_>
        <_>
          <internalNodes>
            0 -1 162 4.9768314056564122e-06</internalNodes>
          <leafValues>
            -1.7305554449558258e-01 2.4211511015892029e-01</leafValues></_>
        <_>
          <internalNodes>
            0 -1 68 2.8370033949613571e-02</internalNodes>
          <leafValues>
            -1.4971125125885010e-01 2.8630724549293518e-01</leafValues></_>
        <_>
          <internalNodes>
            0 -1 526 1.6439862083643675e-03</internalNodes>
          <leafValues>
            -1.6468110680580139e-01 2.6961606740951538e-01</leafValues></_>
        <_>
          <internalNodes>
            0 -1 109 -8.4701401647180319e-04</internalNodes>
          <leafValues>
            -4.4051656126976013e-01 1.1401596665382385e-01</leafValues></_>
        <_>
          <internalNodes>
            0 -1 333 2.5527509860694408e-03</internalNodes>
          <leafValues>
            -1.7657719552516937e-01 2.2351270914077759e-01</leafValues></_>
        <_>
          <internalNodes>
            0 -1 180 1.2450530193746090e-02</internalNodes>
          <leafValues>
            -1.2066774815320969e-01 3.4129977226257324e-01</leafValues></_>
        <_>
          <internalNodes>
            0 -1 132 -2.0200647413730621e-02</internalNodes>
          <leafValues>
            3.5993391275405884e-01 -1.3312001526355743e-01</leafValues></_>
        <_>
          <internalNodes>
            0 -1 469 -1.6081257490441203e-04</internalNodes>
          <leafValues>
            -3.0436939001083374e-01 1.5309004485607147e-01</leafValues></_>
        <_>
          <internalNodes>
            0 -1 21 8.5558684077113867e-04</internalNodes>
          <leafValues>
            1.4229612052440643e-01 -3.0878913402557373e-01</leafValues></_>
        <_>
          <internalNodes>
            0 -1 94 -4.6042136847972870e-02</internalNodes>
          <leafValues>
            4.5075470209121704e-01 -1.0439341515302658e-01</leafValues></_>
        <_>
          <internalNodes>
            0 -1 105 -9.4095704844221473e-04</internalNodes>
          <leafValues>
            5.3217834234237671e-01 -8.9389771223068237e-02</leafValues></_></weakClassifiers></_>
    <!-- stage 11 -->
    <_>
      <maxWeakCount>24</maxWeakCount>
      <stageThreshold>-1.5171657800674438e+00</stageThreshold>
      <weakClassifiers>
        <_>
          <internalNodes>
            0 -1 139 -2.8155224863439798e-03</internalNodes>
          <leafValues>
            1.5513126552104950e-01 -5.8259910345077515e-01</leafValues></_>
        <_>
          <internalNodes>
            0 -1 432 6.3367657363414764e-02</internalNodes>
          <leafValues>
            2.1926045417785645e-02 -9.9457901716232300e-01</leafValues></_>
        <_>
          <internalNodes>
            0 -1 428 -1.9499566406011581e-03</internalNodes>
          <leafValues>
            4.5686700940132141e-01 -1.1544808745384216e-01</leafValues></_>
        <_>
          <internalNodes>
            0 -1 11 -6.0634408146142960e-03</internalNodes>
          <leafValues>
            3.5451197624206543e-01 -2.0561096072196960e-01</leafValues></_>
        <_>
          <internalNodes>
            0 -1 454 -2.8365920297801495e-03</internalNodes>
          <leafValues>
            -4.9553281068801880e-01 1.5476837754249573e-01</leafValues></_>
        <_>
          <internalNodes>
            0 -1 485 -2.2538248449563980e-02</internalNodes>
          <leafValues>
            -9.1921973228454590e-01 4.9173526465892792e-02</leafValues></_>
        <_>
          <internalNodes>
            0 -1 369 4.6715219505131245e-03</internalNodes>
          <leafValues>
            -1.2089648097753525e-01 5.9125596284866333e-01</leafValues></_>
        <_>
          <internalNodes>
            0 -1 255 4.9667665734887123e-04</internalNodes>
          <leafValues>
            1.3837207853794098e-01 -3.9187696576118469e-01</leafValues></_>
        <_>
          <internalNodes>
            0 -1 309 4.3836824595928192e-02</internalNodes>
          <leafValues>
            -1.6719944775104523e-01 3.2216015458106995e-01</leafValues></_>
        <_>
          <internalNodes>
            0 -1 320 1.0727363405749202e-03</internalNodes>
          <leafValues>
            1.6274097561836243e-01 -3.1299003958702087e-01</leafValues></_>
        <_>
          <internalNodes>
            0 -1 213 -8.1959694623947144e-02</internalNodes>
          <leafValues>
            5.4973977804183960e-01 -1.0203087329864502e-01</leafValues></_>
        <_>
          <internalNodes>
            0 -1 269 1.5445433557033539e-02</internalNodes>
          <leafValues>
            -7.0665299892425537e-02 6.9663572311401367e-01</leafValues></_>
        <_>
          <internalNodes>
            0 -1 168 7.7740836422890425e-04</internalNodes>
          <leafValues>
            1.0689907521009445e-01 -5.1448804140090942e-01</leafValues></_>
        <_>
          <internalNodes>
            0 -1 72 -1.1702606454491615e-02</internalNodes>
          <leafValues>
            6.6093325614929199e-01 -8.1450372934341431e-02</leafValues></_>
        <_>
          <internalNodes>
            0 -1 90 -2.9792233835905790e-03</internalNodes>
          <leafValues>
            3.1646934151649475e-01 -1.7221626639366150e-01</leafValues></_>
        <_>
          <internalNodes>
            0 -1 373 -4.4524073600769043e-03</internalNodes>
          <leafValues>
            5.6974613666534424e-01 -8.1892207264900208e-02</leafValues></_>
        <_>
          <internalNodes>
            0 -1 466 -1.1986601166427135e-03</internalNodes>
          <leafValues>
            5.7940220832824707e-01 -7.2505578398704529e-02</leafValues></_>
        <_>
          <internalNodes>
            0 -1 478 6.9921044632792473e-04</internalNodes>
          <leafValues>
            9.3269310891628265e-02 -5.3757202625274658e-01</leafValues></_>
        <_>
          <internalNodes>
            0 -1 430 1.0699409758672118e-03</internalNodes>
          <leafValues>
            -8.2948394119739532e-02 5.6861013174057007e-01</leafValues></_>
        <_>
          <internalNodes>
            0 -1 444 4.4320131564745679e-06</internalNodes>
          <leafValues>
            -1.7278514802455902e-01 2.4472229182720184e-01</leafValues></_>
        <_>
          <internalNodes>
            0 -1 95 2.0448342547751963e-04</internalNodes>
          <leafValues>
            1.6704334318637848e-01 -2.5877174735069275e-01</leafValues></_>
        <_>
          <internalNodes>
            0 -1 37 -8.5793714970350266e-04</internalNodes>
          <leafValues>
            -3.6012566089630127e-01 1.1617855727672577e-01</leafValues></_>
        <_>
          <internalNodes>
            0 -1 49 -2.3288983851671219e-02</internalNodes>
          <leafValues>
            3.4845396876335144e-01 -1.3747599720954895e-01</leafValues></_>
        <_>
          <internalNodes>
            0 -1 2 1.7108023166656494e-01</internalNodes>
          <leafValues>
            -1.4837613701820374e-01 3.2937785983085632e-01</leafValues></_></weakClassifiers></_>
    <!-- stage 12 -->
    <_>
      <maxWeakCount>37</maxWeakCount>
      <stageThreshold>-1.6111278533935547e+00</stageThreshold>
      <weakClassifiers>
        <_>
          <internalNodes>
            0 -1 93 5.8655858039855957e-02</internalNodes>
          <leafValues>
            -5.9658581018447876e-01 -8.2865171134471893e-02</leafValues></_>
        <_>
          <internalNodes>
            0 -1 150 -5.7951264083385468e-02</internalNodes>
          <leafValues>
            3.6741480231285095e-01 -1.8760932981967926e-01</leafValues></_>
        <_>
          <internalNodes>
            0 -1 451 3.6205248907208443e-03</internalNodes>
          <leafValues>
            -1.6577136516571045e-01 2.8611633181571960e-01</leafValues></_>
        <_>
          <internalNodes>
            0 -1 436 2.4094479158520699e-03</internalNodes>
          <leafValues>
            -9.1548956930637360e-02 4.5478749275207520e-01</leafValues></_>
        <_>
          <internalNodes>
            0 -1 532 -1.2882005830761045e-04</internalNodes>
          <leafValues>
            -4.4238522648811340e-01 9.0400181710720062e-02</leafValues></_>
        <_>
          <internalNodes>
            0 -1 532 -4.5053538997308351e-06</internalNodes>
          <leafValues>
            3.3055657148361206e-01 -1.1404714733362198e-01</leafValues></_>
        <_>
          <internalNodes>
            0 -1 398 4.3440677472972311e-06</internalNodes>
          <leafValues>
            -2.3753798007965088e-01 1.5791781246662140e-01</leafValues></_>
        <_>
          <internalNodes>
            0 -1 423 1.3694625813513994e-03</internalNodes>
          <leafValues>
            -9.5767877995967865e-02 5.3056436777114868e-01</leafValues></_>
        <_>
          <internalNodes>
            0 -1 313 7.0622243219986558e-04</internalNodes>
          <leafValues>
            1.1197762191295624e-01 -3.7670275568962097e-01</leafValues></_>
        <_>
          <internalNodes>
            0 -1 146 -1.7562295543029904e-03</internalNodes>
          <leafValues>
            4.5808574557304382e-01 -7.0486456155776978e-02</leafValues></_>
        <_>
          <internalNodes>
            0 -1 263 2.5210964959114790e-03</internalNodes>
          <leafValues>
            -1.6891098022460938e-01 2.4870528280735016e-01</leafValues></_>
        <_>
          <internalNodes>
            0 -1 378 -3.6263801157474518e-03</internalNodes>
          <leafValues>
            4.6819171309471130e-01 -9.5996230840682983e-02</leafValues></_>
        <_>
          <internalNodes>
            0 -1 476 -7.0234620943665504e-04</internalNodes>
          <leafValues>
            -4.7853025794029236e-01 7.5984820723533630e-02</leafValues></_>
        <_>
          <internalNodes>
            0 -1 518 4.8195186536759138e-04</internalNodes>
          <leafValues>
            1.3683821260929108e-01 -2.9856395721435547e-01</leafValues></_>
        <_>
          <internalNodes>
            0 -1 495 1.3697430258616805e-03</internalNodes>
          <leafValues>
            -9.1279871761798859e-02 4.6791806817054749e-01</leafValues></_>
        <_>
          <internalNodes>
            0 -1 248 -1.9256753847002983e-02</internalNodes>
          <leafValues>
            4.8897537589073181e-01 -8.1760846078395844e-02</leafValues></_>
        <_>
          <internalNodes>
            0 -1 141 2.4478728882968426e-03</internalNodes>
          <leafValues>
            -6.5710484981536865e-02 4.4443333148956299e-01</leafValues></_>
        <_>
          <internalNodes>
            0 -1 17 -5.7965575251728296e-04</internalNodes>
          <leafValues>
            -4.6152567863464355e-01 8.3642169833183289e-02</leafValues></_>
        <_>
          <internalNodes>
            0 -1 334 3.9502035360783339e-04</internalNodes>
          <leafValues>
            1.1590548604726791e-01 -3.2050746679306030e-01</leafValues></_>
        <_>
          <internalNodes>
            0 -1 165 9.8959449678659439e-04</internalNodes>
          <leafValues>
            -1.6453984379768372e-01 2.3100154101848602e-01</leafValues></_>
        <_>
          <internalNodes>
            0 -1 331 -1.1429876089096069e-02</internalNodes>
          <leafValues>
            4.5316350460052490e-01 -8.3061277866363525e-02</leafValues></_>
        <_>
          <internalNodes>
            0 -1 219 8.2427570596337318e-03</internalNodes>
          <leafValues>
            -1.4325834810733795e-01 2.7674576640129089e-01</leafValues></_>
        <_>
          <internalNodes>
            0 -1 279 6.1541395261883736e-03</internalNodes>
          <leafValues>
            -1.3344331085681915e-01 2.7778220176696777e-01</leafValues></_>
        <_>
          <internalNodes>
            0 -1 291 4.7006542445160449e-06</internalNodes>
          <leafValues>
            -1.9913208484649658e-01 1.9066099822521210e-01</leafValues></_>
        <_>
          <internalNodes>
            0 -1 303 3.5099976230412722e-04</internalNodes>
          <leafValues>
            1.1731509864330292e-01 -3.2546246051788330e-01</leafValues></_>
        <_>
          <internalNodes>
            0 -1 374 -1.2964591383934021e-02</internalNodes>
          <leafValues>
            4.3592962622642517e-01 -9.1157548129558563e-02</leafValues></_>
        <_>
          <internalNodes>
            0 -1 55 7.2027806891128421e-04</internalNodes>
          <leafValues>
            9.5263041555881500e-02 -4.3595623970031738e-01</leafValues></_>
        <_>
          <internalNodes>
            0 -1 363 -1.9071131944656372e-02</internalNodes>
          <leafValues>
            5.8964622020721436e-01 -7.3256373405456543e-02</leafValues></_>
        <_>
          <internalNodes>
            0 -1 493 -1.8099714070558548e-02</internalNodes>
          <leafValues>
            -5.6717759370803833e-01 7.3559582233428955e-02</leafValues></_>
        <_>
          <internalNodes>
            0 -1 126 5.3244880400598049e-03</internalNodes>
          <leafValues>
            -9.1650247573852539e-02 4.4165936112403870e-01</leafValues></_>
        <_>
          <internalNodes>
            0 -1 70 -3.8307474460452795e-04</internalNodes>
          <leafValues>
            -3.2618802785873413e-01 1.1946231871843338e-01</leafValues></_>
        <_>
          <internalNodes>
            0 -1 5 -1.7387941479682922e-02</internalNodes>
          <leafValues>
            2.8582558035850525e-01 -1.4747682213783264e-01</leafValues></_>
        <_>
          <internalNodes>
            0 -1 450 -4.5377778405963909e-06</internalNodes>
          <leafValues>
            2.2783699631690979e-01 -1.5379494428634644e-01</leafValues></_>
        <_>
          <internalNodes>
            0 -1 337 4.3999189074384049e-06</internalNodes>
          <leafValues>
            -1.8690143525600433e-01 1.8907336890697479e-01</leafValues></_>
        <_>
          <internalNodes>
            0 -1 490 4.2638489503588062e-06</internalNodes>
          <leafValues>
            -1.6523815691471100e-01 2.0958353579044342e-01</leafValues></_>
        <_>
          <internalNodes>
            0 -1 225 4.1246865293942392e-04</internalNodes>
          <leafValues>
            -5.5729351937770844e-02 6.1600422859191895e-01</leafValues></_>
        <_>
          <internalNodes>
            0 -1 339 -9.3349948525428772e-02</internalNodes>
          <leafValues>
            3.0824846029281616e-01 -1.1943434923887253e-01</leafValues></_></weakClassifiers></_>
    <!-- stage 13 -->
    <_>
      <maxWeakCount>25</maxWeakCount>
      <stageThreshold>-1.5832661390304565e+00</stageThreshold>
      <weakClassifiers>
        <_>
          <internalNodes>
            0 -1 395 2.4000920355319977e-02</internalNodes>
          <leafValues>
            -5.9538751840591431e-01 -1.8385291099548340e-02</leafValues></_>
        <_>
          <internalNodes>
            0 -1 457 1.2621945643331856e-04</internalNodes>
          <leafValues>
            6.4751774072647095e-02 -5.3882223367691040e-01</leafValues></_>
        <_>
          <internalNodes>
            0 -1 14 1.4179393649101257e-02</internalNodes>
          <leafValues>
            -1.2146651744842529e-01 5.1836276054382324e-01</leafValues></_>
        <_>
          <internalNodes>
            0 -1 295 1.2199338525533676e-02</internalNodes>
          <leafValues>
            1.2108711153268814e-01 -4.8423051834106445e-01</leafValues></_>
        <_>
          <internalNodes>
            0 -1 228 -9.2163108289241791e-02</internalNodes>
          <leafValues>
            6.0461866855621338e-01 -8.5825897753238678e-02</leafValues></_>
        <_>
          <internalNodes>
            0 -1 287 4.2340476065874100e-02</internalNodes>
          <leafValues>
            -1.2870366871356964e-01 3.9007782936096191e-01</leafValues></_>
        <_>
          <internalNodes>
            0 -1 144 -6.3190970104187727e-04</internalNodes>
          <leafValues>
            3.4150981903076172e-01 -1.6308911144733429e-01</leafValues></_>
        <_>
          <internalNodes>
            0 -1 128 4.0192524902522564e-03</internalNodes>
          <leafValues>
            -1.2429247051477432e-01 5.8691149950027466e-01</leafValues></_>
        <_>
          <internalNodes>
            0 -1 64 -4.5989471254870296e-04</internalNodes>
          <leafValues>
            -3.5639527440071106e-01 1.6940934956073761e-01</leafValues></_>
        <_>
          <internalNodes>
            0 -1 81 -3.0889763729646802e-04</internalNodes>
          <leafValues>
            2.8415679931640625e-01 -1.7625677585601807e-01</leafValues></_>
        <_>
          <internalNodes>
            0 -1 22 2.4098646827042103e-03</internalNodes>
          <leafValues>
            1.5303711593151093e-01 -3.6482879519462585e-01</leafValues></_>
        <_>
          <internalNodes>
            0 -1 379 -3.8134746253490448e-02</internalNodes>
          <leafValues>
            3.6083438992500305e-01 -1.3603147864341736e-01</leafValues></_>
        <_>
          <internalNodes>
            0 -1 386 4.0828422643244267e-03</internalNodes>
          <leafValues>
            -1.6891275346279144e-01 3.1001976132392883e-01</leafValues></_>
        <_>
          <internalNodes>
            0 -1 412 -1.7450421000830829e-04</internalNodes>
          <leafValues>
            -3.1036004424095154e-01 1.6431352496147156e-01</leafValues></_>
        <_>
          <internalNodes>
            0 -1 206 -5.5632710456848145e-02</internalNodes>
          <leafValues>
            5.1400130987167358e-01 -9.3448311090469360e-02</leafValues></_>
        <_>
          <internalNodes>
            0 -1 201 1.0552985966205597e-01</internalNodes>
          <leafValues>
            -1.1143146455287933e-01 5.0043058395385742e-01</leafValues></_>
        <_>
          <internalNodes>
            0 -1 342 1.9108236301690340e-04</internalNodes>
          <leafValues>
            1.3151445984840393e-01 -4.3784147500991821e-01</leafValues></_>
        <_>
          <internalNodes>
            0 -1 364 -2.9487805441021919e-03</internalNodes>
          <leafValues>
            7.1360576152801514e-01 -8.4045112133026123e-02</leafValues></_>
        <_>
          <internalNodes>
            0 -1 349 -2.1788782032672316e-04</internalNodes>
          <leafValues>
            -4.7916984558105469e-01 1.1410146206617355e-01</leafValues></_>
        <_>
          <internalNodes>
            0 -1 110 -2.5044873356819153e-02</internalNodes>
          <leafValues>
            3.9946496486663818e-01 -1.1630959808826447e-01</leafValues></_>
        <_>
          <internalNodes>
            0 -1 106 4.1060964576900005e-04</internalNodes>
          <leafValues>
            -5.9189073741436005e-02 6.8422818183898926e-01</leafValues></_>
        <_>
          <internalNodes>
            0 -1 519 3.5173486685380340e-04</internalNodes>
          <leafValues>
            -8.2633763551712036e-02 4.9098682403564453e-01</leafValues></_>
        <_>
          <internalNodes>
            0 -1 254 8.1265741027891636e-04</internalNodes>
          <leafValues>
            1.6134014725685120e-01 -2.7838855981826782e-01</leafValues></_>
        <_>
          <internalNodes>
            0 -1 207 -4.2603965084708761e-06</internalNodes>
          <leafValues>
            2.5105863809585571e-01 -1.8112699687480927e-01</leafValues></_>
        <_>
          <internalNodes>
            0 -1 358 2.8339173644781113e-02</internalNodes>
          <leafValues>
            -8.4233351051807404e-02 5.4197329282760620e-01</leafValues></_></weakClassifiers></_>
    <!-- stage 14 -->
    <_>
      <maxWeakCount>25</maxWeakCount>
      <stageThreshold>-1.7104616165161133e+00</stageThreshold>
      <weakClassifiers>
        <_>
          <internalNodes>
            0 -1 467 -1.9964275415986776e-03</internalNodes>
          <leafValues>
            -7.9409134387969971e-01 -3.0330455303192139e-01</leafValues></_>
        <_>
          <internalNodes>
            0 -1 69 1.9439827883616090e-04</internalNodes>
          <leafValues>
            1.1461307853460312e-01 -4.6361228823661804e-01</leafValues></_>
        <_>
          <internalNodes>
            0 -1 41 1.5887890011072159e-02</internalNodes>
          <leafValues>
            6.7081548273563385e-02 -9.4362294673919678e-01</leafValues></_>
        <_>
          <internalNodes>
            0 -1 169 -3.2855829596519470e-01</internalNodes>
          <leafValues>
            -8.2585608959197998e-01 9.2259056866168976e-02</leafValues></_>
        <_>
          <internalNodes>
            0 -1 265 1.3658028095960617e-02</internalNodes>
          <leafValues>
            -1.6147857904434204e-01 4.7518187761306763e-01</leafValues></_>
        <_>
          <internalNodes>
            0 -1 36 -1.7594303935766220e-02</internalNodes>
          <leafValues>
            4.6902766823768616e-01 -1.4834451675415039e-01</leafValues></_>
        <_>
          <internalNodes>
            0 -1 80 2.5702813640236855e-02</internalNodes>
          <leafValues>
            -1.6502837836742401e-01 3.8576090335845947e-01</leafValues></_>
        <_>
          <internalNodes>
            0 -1 244 -1.5365651808679104e-02</internalNodes>
          <leafValues>
            4.6195274591445923e-01 -1.1101724952459335e-01</leafValues></_>
        <_>
          <internalNodes>
            0 -1 429 -1.6711749136447906e-02</internalNodes>
          <leafValues>
            -4.3482521176338196e-01 1.2978607416152954e-01</leafValues></_>
        <_>
          <internalNodes>
            0 -1 401 -4.6605139505118132e-04</internalNodes>
          <leafValues>
            8.0321133136749268e-01 -8.7131120264530182e-02</leafValues></_>
        <_>
          <internalNodes>
            0 -1 67 1.3162990799173713e-03</internalNodes>
          <leafValues>
            1.7466020584106445e-01 -3.3372476696968079e-01</leafValues></_>
        <_>
          <internalNodes>
            0 -1 191 7.7577889896929264e-04</internalNodes>
          <leafValues>
            -6.4141184091567993e-02 7.2844332456588745e-01</leafValues></_>
        <_>
          <internalNodes>
            0 -1 99 -4.6891331672668457e-02</internalNodes>
          <leafValues>
            4.3192997574806213e-01 -1.0921665281057358e-01</leafValues></_>
        <_>
          <internalNodes>
            0 -1 316 1.5255171456374228e-04</internalNodes>
          <leafValues>
            1.8100997805595398e-01 -2.8802898526191711e-01</leafValues></_>
        <_>
          <internalNodes>
            0 -1 256 2.4105742573738098e-02</internalNodes>
          <leafValues>
            -2.0814788341522217e-01 2.7246877551078796e-01</leafValues></_>
        <_>
          <internalNodes>
            0 -1 204 3.4892670810222626e-02</internalNodes>
          <leafValues>
            -1.2222234904766083e-01 5.1478290557861328e-01</leafValues></_>
        <_>
          <internalNodes>
            0 -1 312 1.2360273860394955e-02</internalNodes>
          <leafValues>
            -1.2351710349321365e-01 4.1067981719970703e-01</leafValues></_>
        <_>
          <internalNodes>
            0 -1 445 4.1989542296505533e-06</internalNodes>
          <leafValues>
            -1.9945678114891052e-01 2.5668430328369141e-01</leafValues></_>
        <_>
          <internalNodes>
            0 -1 16 1.0899532935582101e-04</internalNodes>
          <leafValues>
            1.6545498371124268e-01 -3.2004997134208679e-01</leafValues></_>
        <_>
          <internalNodes>
            0 -1 149 4.5053538997308351e-06</internalNodes>
          <leafValues>
            -1.8123401701450348e-01 2.6360279321670532e-01</leafValues></_>
        <_>
          <internalNodes>
            0 -1 149 -4.3024288061133120e-06</internalNodes>
          <leafValues>
            2.9278787970542908e-01 -1.9376794993877411e-01</leafValues></_>
        <_>
          <internalNodes>
            0 -1 419 9.2003749159630388e-05</internalNodes>
          <leafValues>
            -2.1360467374324799e-01 2.3722656071186066e-01</leafValues></_>
        <_>
          <internalNodes>
            0 -1 261 -3.6115765571594238e-02</internalNodes>
          <leafValues>
            6.5399807691574097e-01 -7.8770935535430908e-02</leafValues></_>
        <_>
          <internalNodes>
            0 -1 408 3.7121106870472431e-03</internalNodes>
          <leafValues>
            -5.2226498723030090e-02 7.7008545398712158e-01</leafValues></_>
        <_>
          <internalNodes>
            0 -1 82 -4.9841627478599548e-03</internalNodes>
          <leafValues>
            2.0293878018856049e-01 -2.5022327899932861e-01</leafValues></_></weakClassifiers></_>
    <!-- stage 15 -->
    <_>
      <maxWeakCount>39</maxWeakCount>
      <stageThreshold>-1.5340783596038818e+00</stageThreshold>
      <weakClassifiers>
        <_>
          <internalNodes>
            0 -1 243 -2.6751816272735596e-02</internalNodes>
          <leafValues>
            4.3115437030792236e-02 -5.5979955196380615e-01</leafValues></_>
        <_>
          <internalNodes>
            0 -1 114 -4.1037096525542438e-04</internalNodes>
          <leafValues>
            4.4480675458908081e-01 -1.4284160733222961e-01</leafValues></_>
        <_>
          <internalNodes>
            0 -1 272 -7.4275094084441662e-04</internalNodes>
          <leafValues>
            -3.3016115427017212e-01 1.1803472042083740e-01</leafValues></_>
        <_>
          <internalNodes>
            0 -1 160 5.5308861192315817e-04</internalNodes>
          <leafValues>
            -7.7054306864738464e-02 5.3445822000503540e-01</leafValues></_>
        <_>
          <internalNodes>
            0 -1 329 -3.0545212328433990e-02</internalNodes>
          <leafValues>
            1.7692585289478302e-01 -1.9464668631553650e-01</leafValues></_>
        <_>
          <internalNodes>
            0 -1 233 6.8890058901160955e-04</internalNodes>
          <leafValues>
            2.0203886926174164e-01 -2.7587395906448364e-01</leafValues></_>
        <_>
          <internalNodes>
            0 -1 237 -1.4074325736146420e-04</internalNodes>
          <leafValues>
            -2.8631076216697693e-01 1.3463786244392395e-01</leafValues></_>
        <_>
          <internalNodes>
            0 -1 275 4.6682471293024719e-06</internalNodes>
          <leafValues>
            -2.1343097090721130e-01 1.7493662238121033e-01</leafValues></_>
        <_>
          <internalNodes>
            0 -1 140 -3.5000231582671404e-04</internalNodes>
          <leafValues>
            5.1831966638565063e-01 -7.4602767825126648e-02</leafValues></_>
        <_>
          <internalNodes>
            0 -1 220 -2.5719262659549713e-02</internalNodes>
          <leafValues>
            4.6908074617385864e-01 -7.1766987442970276e-02</leafValues></_>
        <_>
          <internalNodes>
            0 -1 522 4.4130119931651279e-06</internalNodes>
          <leafValues>
            -1.8823538720607758e-01 1.8159087002277374e-01</leafValues></_>
        <_>
          <internalNodes>
            0 -1 189 -4.5011271722614765e-03</internalNodes>
          <leafValues>
            6.6896218061447144e-01 -5.6062228977680206e-02</leafValues></_>
        <_>
          <internalNodes>
            0 -1 440 6.7985663190484047e-04</internalNodes>
          <leafValues>
            1.4338928461074829e-01 -2.5327473878860474e-01</leafValues></_>
        <_>
          <internalNodes>
            0 -1 449 -7.6934695243835449e-03</internalNodes>
          <leafValues>
            -4.7842833399772644e-01 8.2879908382892609e-02</leafValues></_>
        <_>
          <internalNodes>
            0 -1 317 2.5172899477183819e-03</internalNodes>
          <leafValues>
            -7.3469057679176331e-02 5.5127942562103271e-01</leafValues></_>
        <_>
          <internalNodes>
            0 -1 252 -4.1790705174207687e-02</internalNodes>
          <leafValues>
            4.6410238742828369e-01 -7.2562657296657562e-02</leafValues></_>
        <_>
          <internalNodes>
            0 -1 520 9.9323992617428303e-04</internalNodes>
          <leafValues>
            8.3990097045898438e-02 -4.7061532735824585e-01</leafValues></_>
        <_>
          <internalNodes>
            0 -1 389 -5.8486661873757839e-04</internalNodes>
          <leafValues>
            5.0937944650650024e-01 -7.6835267245769501e-02</leafValues></_>
        <_>
          <internalNodes>
            0 -1 130 -1.3159420341253281e-03</internalNodes>
          <leafValues>
            1.9152320921421051e-01 -1.7930912971496582e-01</leafValues></_>
        <_>
          <internalNodes>
            0 -1 277 -1.2770295143127441e-01</internalNodes>
          <leafValues>
            7.8425759077072144e-01 -3.9621680974960327e-02</leafValues></_>
        <_>
          <internalNodes>
            0 -1 415 -3.5438986960798502e-03</internalNodes>
          <leafValues>
            7.8880870342254639e-01 -3.4567750990390778e-02</leafValues></_>
        <_>
          <internalNodes>
            0 -1 503 3.0113878892734647e-04</internalNodes>
          <leafValues>
            9.8036766052246094e-02 -3.5525807738304138e-01</leafValues></_>
        <_>
          <internalNodes>
            0 -1 480 2.3262272588908672e-04</internalNodes>
          <leafValues>
            1.1728301644325256e-01 -2.9198029637336731e-01</leafValues></_>
        <_>
          <internalNodes>
            0 -1 474 1.1673562694340944e-03</internalNodes>
          <leafValues>
            -7.8901417553424835e-02 4.6146863698959351e-01</leafValues></_>
        <_>
          <internalNodes>
            0 -1 437 -6.6017834469676018e-03</internalNodes>
          <leafValues>
            2.5455051660537720e-01 -1.4015313982963562e-01</leafValues></_>
        <_>
          <internalNodes>
            0 -1 274 -3.8652956485748291e-02</internalNodes>
          <leafValues>
            4.2137107253074646e-01 -9.2611089348793030e-02</leafValues></_>
        <_>
          <internalNodes>
            0 -1 196 -3.8989726454019547e-02</internalNodes>
          <leafValues>
            -5.9431350231170654e-01 7.0182256400585175e-02</leafValues></_>
        <_>
          <internalNodes>
            0 -1 328 1.3240479165688157e-03</internalNodes>
          <leafValues>
            7.2036564350128174e-02 -4.2477288842201233e-01</leafValues></_>
        <_>
          <internalNodes>
            0 -1 354 -2.2777055855840445e-03</internalNodes>
          <leafValues>
            2.8184342384338379e-01 -1.2292645126581192e-01</leafValues></_>
        <_>
          <internalNodes>
            0 -1 492 -5.9731854125857353e-03</internalNodes>
          <leafValues>
            -4.3020349740982056e-01 8.5155986249446869e-02</leafValues></_>
        <_>
          <internalNodes>
            0 -1 193 8.3529355470091105e-04</internalNodes>
          <leafValues>
            -6.4247250556945801e-02 6.2937748432159424e-01</leafValues></_>
        <_>
          <internalNodes>
            0 -1 470 -1.6232013877015561e-04</internalNodes>
          <leafValues>
            -2.9608201980590820e-01 1.2285516411066055e-01</leafValues></_>
        <_>
          <internalNodes>
            0 -1 507 -1.5152004198171198e-04</internalNodes>
          <leafValues>
            -4.0909239649772644e-01 9.5603406429290771e-02</leafValues></_>
        <_>
          <internalNodes>
            0 -1 35 -1.0679938830435276e-02</internalNodes>
          <leafValues>
            -5.3189665079116821e-01 6.0634180903434753e-02</leafValues></_>
        <_>
          <internalNodes>
            0 -1 59 4.5640476855624001e-06</internalNodes>
          <leafValues>
            -1.7003576457500458e-01 1.9715681672096252e-01</leafValues></_>
        <_>
          <internalNodes>
            0 -1 371 4.0178626775741577e-02</internalNodes>
          <leafValues>
            -7.3234483599662781e-02 4.3694826960563660e-01</leafValues></_>
        <_>
          <internalNodes>
            0 -1 353 -1.0631498880684376e-03</internalNodes>
          <leafValues>
            6.7941790819168091e-01 -4.8999905586242676e-02</leafValues></_>
        <_>
          <internalNodes>
            0 -1 489 1.2048489879816771e-03</internalNodes>
          <leafValues>
            -1.3684095442295074e-01 2.4408854544162750e-01</leafValues></_>
        <_>
          <internalNodes>
            0 -1 51 -1.0303745977580547e-02</internalNodes>
          <leafValues>
            2.3605546355247498e-01 -1.4750978350639343e-01</leafValues></_></weakClassifiers></_>
    <!-- stage 16 -->
    <_>
      <maxWeakCount>34</maxWeakCount>
      <stageThreshold>-1.6785663366317749e+00</stageThreshold>
      <weakClassifiers>
        <_>
          <internalNodes>
            0 -1 307 1.6308274120092392e-02</internalNodes>
          <leafValues>
            -5.8206027746200562e-01 5.2740436047315598e-02</leafValues></_>
        <_>
          <internalNodes>
            0 -1 184 2.6946666184812784e-03</internalNodes>
          <leafValues>
            -1.6357275843620300e-01 4.7983551025390625e-01</leafValues></_>
        <_>
          <internalNodes>
            0 -1 32 -4.3887365609407425e-04</internalNodes>
          <leafValues>
            -4.8650163412094116e-01 9.6346177160739899e-02</leafValues></_>
        <_>
          <internalNodes>
            0 -1 154 2.5299657136201859e-03</internalNodes>
          <leafValues>
            -9.7973726689815521e-02 4.9045902490615845e-01</leafValues></_>
        <_>
          <internalNodes>
            0 -1 208 1.1435728520154953e-02</internalNodes>
          <leafValues>
            -2.8882369399070740e-02 6.0863709449768066e-01</leafValues></_>
        <_>
          <internalNodes>
            0 -1 242 4.5574568212032318e-02</internalNodes>
          <leafValues>
            -8.8584460318088531e-02 5.6938099861145020e-01</leafValues></_>
        <_>
          <internalNodes>
            0 -1 4 -9.5376074314117432e-03</internalNodes>
          <leafValues>
            2.8244724869728088e-01 -1.6806994378566742e-01</leafValues></_>
        <_>
          <internalNodes>
            0 -1 268 -2.0257342606782913e-02</internalNodes>
          <leafValues>
            4.8689368367195129e-01 -8.6897984147071838e-02</leafValues></_>
        <_>
          <internalNodes>
            0 -1 249 5.7009421288967133e-04</internalNodes>
          <leafValues>
            1.5816836059093475e-01 -3.1412583589553833e-01</leafValues></_>
        <_>
          <internalNodes>
            0 -1 247 6.8132961168885231e-03</internalNodes>
          <leafValues>
            1.1844401061534882e-01 -4.7537481784820557e-01</leafValues></_>
        <_>
          <internalNodes>
            0 -1 28 8.7888874113559723e-03</internalNodes>
          <leafValues>
            -1.0952238738536835e-01 5.0089752674102783e-01</leafValues></_>
        <_>
          <internalNodes>
            0 -1 456 4.7009752961457707e-06</internalNodes>
          <leafValues>
            -2.2209657728672028e-01 1.9895468652248383e-01</leafValues></_>
        <_>
          <internalNodes>
            0 -1 491 -3.6334358155727386e-03</internalNodes>
          <leafValues>
            -6.9993680715560913e-01 7.9340524971485138e-02</leafValues></_>
        <_>
          <internalNodes>
            0 -1 465 -4.0307774906978011e-04</internalNodes>
          <leafValues>
            4.6199041604995728e-01 -1.1069300025701523e-01</leafValues></_>
        <_>
          <internalNodes>
            0 -1 280 1.1685898527503014e-02</internalNodes>
          <leafValues>
            -1.3868220150470734e-01 3.4596681594848633e-01</leafValues></_>
        <_>
          <internalNodes>
            0 -1 297 1.1609195498749614e-03</internalNodes>
          <leafValues>
            1.7591765522956848e-01 -2.6942017674446106e-01</leafValues></_>
        <_>
          <internalNodes>
            0 -1 529 2.4581450270488858e-04</internalNodes>
          <leafValues>
            1.4278116822242737e-01 -3.4018230438232422e-01</leafValues></_>
        <_>
          <internalNodes>
            0 -1 136 -3.4223716706037521e-02</internalNodes>
          <leafValues>
            4.4699963927268982e-01 -1.0884931683540344e-01</leafValues></_>
        <_>
          <internalNodes>
            0 -1 514 1.9129589782096446e-04</internalNodes>
          <leafValues>
            8.2933761179447174e-02 -5.2257841825485229e-01</leafValues></_>
        <_>
          <internalNodes>
            0 -1 13 3.4697607159614563e-02</internalNodes>
          <leafValues>
            5.7746194303035736e-02 -5.8726823329925537e-01</leafValues></_>
        <_>
          <internalNodes>
            0 -1 159 1.2127643451094627e-02</internalNodes>
          <leafValues>
            -1.2619289755821228e-01 3.3832478523254395e-01</leafValues></_>
        <_>
          <internalNodes>
            0 -1 262 7.9737300984561443e-04</internalNodes>
          <leafValues>
            1.7435333132743835e-01 -2.3243990540504456e-01</leafValues></_>
        <_>
          <internalNodes>
            0 -1 513 1.3177680084481835e-03</internalNodes>
          <leafValues>
            -1.6726775467395782e-01 2.3441308736801147e-01</leafValues></_>
        <_>
          <internalNodes>
            0 -1 359 -4.5932724788144697e-06</internalNodes>
          <leafValues>
            1.9331565499305725e-01 -1.9845132529735565e-01</leafValues></_>
        <_>
          <internalNodes>
            0 -1 163 4.0330510819330812e-04</internalNodes>
          <leafValues>
            -1.8904794752597809e-01 2.1456007659435272e-01</leafValues></_>
        <_>
          <internalNodes>
            0 -1 494 1.4668055810034275e-03</internalNodes>
          <leafValues>
            -1.0320732742547989e-01 3.9072963595390320e-01</leafValues></_>
        <_>
          <internalNodes>
            0 -1 464 -6.6044292179867625e-04</internalNodes>
          <leafValues>
            -6.1188948154449463e-01 6.5574854612350464e-02</leafValues></_>
        <_>
          <internalNodes>
            0 -1 234 2.3172123357653618e-02</internalNodes>
          <leafValues>
            -1.1134351044893265e-01 3.7728226184844971e-01</leafValues></_>
        <_>
          <internalNodes>
            0 -1 511 -2.9528565937653184e-04</internalNodes>
          <leafValues>
            -4.7841024398803711e-01 8.3078265190124512e-02</leafValues></_>
        <_>
          <internalNodes>
            0 -1 214 4.4673494994640350e-02</internalNodes>
          <leafValues>
            -1.2233120203018188e-01 3.2129168510437012e-01</leafValues></_>
        <_>
          <internalNodes>
            0 -1 54 -6.7355413921177387e-04</internalNodes>
          <leafValues>
            8.9386522769927979e-01 -4.8760462552309036e-02</leafValues></_>
        <_>
          <internalNodes>
            0 -1 107 2.3284726194106042e-04</internalNodes>
          <leafValues>
            1.1397922039031982e-01 -4.0482783317565918e-01</leafValues></_>
        <_>
          <internalNodes>
            0 -1 421 -3.5617430694401264e-04</internalNodes>
          <leafValues>
            3.2596957683563232e-01 -1.1518663913011551e-01</leafValues></_>
        <_>
          <internalNodes>
            0 -1 186 1.2744287028908730e-02</internalNodes>
          <leafValues>
            -1.1716279387474060e-01 3.2791680097579956e-01</leafValues></_></weakClassifiers></_>
    <!-- stage 17 -->
    <_>
      <maxWeakCount>33</maxWeakCount>
      <stageThreshold>-1.6948221921920776e+00</stageThreshold>
      <weakClassifiers>
        <_>
          <internalNodes>
            0 -1 161 1.1205878853797913e-01</internalNodes>
          <leafValues>
            -5.5483365058898926e-01 4.1379311680793762e-01</leafValues></_>
        <_>
          <internalNodes>
            0 -1 240 -1.9749972969293594e-02</internalNodes>
          <leafValues>
            9.7275495529174805e-02 -4.1003435850143433e-01</leafValues></_>
        <_>
          <internalNodes>
            0 -1 183 1.1623762547969818e-03</internalNodes>
          <leafValues>
            -1.1581974476575851e-01 4.2910718917846680e-01</leafValues></_>
        <_>
          <internalNodes>
            0 -1 496 1.2570412945933640e-04</internalNodes>
          <leafValues>
            1.8734250962734222e-01 -2.3726129531860352e-01</leafValues></_>
        <_>
          <internalNodes>
            0 -1 461 5.3535518236458302e-03</internalNodes>
          <leafValues>
            1.4294685423374176e-01 -3.2734492421150208e-01</leafValues></_>
        <_>
          <internalNodes>
            0 -1 25 -4.4113866984844208e-02</internalNodes>
          <leafValues>
            3.4200716018676758e-01 -1.1146585643291473e-01</leafValues></_>
        <_>
          <internalNodes>
            0 -1 34 4.1136942803859711e-02</internalNodes>
          <leafValues>
            -8.3654567599296570e-02 7.3673468828201294e-01</leafValues></_>
        <_>
          <internalNodes>
            0 -1 463 1.2584592914208770e-03</internalNodes>
          <leafValues>
            -6.3377626240253448e-02 6.7918455600738525e-01</leafValues></_>
        <_>
          <internalNodes>
            0 -1 157 -2.2069825790822506e-03</internalNodes>
          <leafValues>
            3.5787993669509888e-01 -1.0526049882173538e-01</leafValues></_>
        <_>
          <internalNodes>
            0 -1 396 4.3562986320466734e-06</internalNodes>
          <leafValues>
            -1.6768231987953186e-01 2.3198267817497253e-01</leafValues></_>
        <_>
          <internalNodes>
            0 -1 20 -6.3415413023903966e-04</internalNodes>
          <leafValues>
            -4.7035494446754456e-01 7.7732659876346588e-02</leafValues></_>
        <_>
          <internalNodes>
            0 -1 425 4.4025737224728800e-06</internalNodes>
          <leafValues>
            -1.8742407858371735e-01 2.2083550691604614e-01</leafValues></_>
        <_>
          <internalNodes>
            0 -1 523 -1.2295332271605730e-04</internalNodes>
          <leafValues>
            -2.3362159729003906e-01 1.7917300760746002e-01</leafValues></_>
        <_>
          <internalNodes>
            0 -1 314 2.2560969227924943e-04</internalNodes>
          <leafValues>
            1.5484313666820526e-01 -2.9065704345703125e-01</leafValues></_>
        <_>
          <internalNodes>
            0 -1 315 -3.9109971839934587e-04</internalNodes>
          <leafValues>
            -3.2965797185897827e-01 1.1551062017679214e-01</leafValues></_>
        <_>
          <internalNodes>
            0 -1 101 -1.0200262768194079e-03</internalNodes>
          <leafValues>
            3.9872977137565613e-01 -1.1066196858882904e-01</leafValues></_>
        <_>
          <internalNodes>
            0 -1 409 -6.3180865254253149e-04</internalNodes>
          <leafValues>
            8.3207035064697266e-01 -4.8673581331968307e-02</leafValues></_>
        <_>
          <internalNodes>
            0 -1 188 4.6782201934547629e-06</internalNodes>
          <leafValues>
            -1.5865457057952881e-01 2.2728855907917023e-01</leafValues></_>
        <_>
          <internalNodes>
            0 -1 377 3.4107165993191302e-04</internalNodes>
          <leafValues>
            8.0750539898872375e-02 -5.1170766353607178e-01</leafValues></_>
        <_>
          <internalNodes>
            0 -1 104 3.6468257894739509e-04</internalNodes>
          <leafValues>
